1.0096027,-0.49175358,0.62779385,-0.5278064,-1.3002481,1.2999771,-0.28019193,0.7671483,-1.9436504,-1.3890836,-1.1578094,-1.8765914,0.443932,-1.507092,-1.0656899,-1.7251154,-4.918233,-1.7102939,-6.798651,2.661941
1.4500278,0.5882318,-2.2731078,-6.473523,-4.71393,-2.5811672,-1.4362569,2.9045358,4.5518084,-3.122879,0.33289555,-9.156018,-1.2655083,3.5023768,2.6648884,-6.2201314,-3.885538,-8.670508,-5.5885043,-3.4391491
-3.351737,-2.4261212,-0.7488406,-0.40547308,0.70022357,1.7514768,0.50888574,-1.7372158,-2.8669758,-2.2650807,-1.8990954,-4.7024875,-1.7036058,-4.080713,-5.8840823,-6.121441,-7.7631226,-2.8966463,-5.943064,-7.5706778
0.100772046,1.4552904,2.5800488,0.89971673,0.13035177,-1.8294865,2.2078156,-0.025571944,1.4506228,0.40199137,1.3169302,5.889922,-0.6213072,2.3904648,-3.441911,-1.6259532,4.7379365,0.6506072,-4.1387925,0.26957518
-0.9656522,-0.37873352,-1.3851298,2.5632508,-0.0902761,-1.1487923,3.3441954,-0.13840334,2.0424557,-0.032506388,-1.5636029,3.785454,0.21164832,2.9929624,-3.7592077,-2.6053698,7.8040557,0.35626495,1.7795999,-0.30405283
0.06732759,-0.85527843,2.0917258,1.0855087,1.2992746,0.015260582,0.20607345,-0.7940168,-0.040473197,1.2274847,-3.9284108,-3.9915922,-0.99159276,-2.1918304,0.058349263,-1.679524,-4.880495,0.12217124,-3.997831,-4.496451
-1.6882974,-0.30354676,1.3264029,0.1497335,-0.44279805,5.481678,-2.0267887,-0.39409393,-1.9310185,-2.156238,-2.2859206,-2.2591975,-1.3488574,-0.57555574,-1.5757813,-4.407903,-8.643641,-1.5559291,-6.207217,-8.557307
-1.2255661,0.13364074,-0.23534334,-0.27346876,0.38036036,-0.19333749,1.1157,-0.825382,4.024825,2.8280623,-0.44185343,-0.5700191,0.15861677,-0.11432654,-1.6896809,-1.7339609,-3.9543524,2.6939547,-1.1285701,-1.5039778
-0.21446952,1.3012904,1.9182742,0.8225521,-1.0835727,-2.101242,0.062258817,-0.58104205,-1.8998412,3.4222836,1.7534236,2.7134635,0.5632724,1.5900676,5.828251,2.2724109,0.85515743,-0.35852212,0.8188362,1.3048077
0.39884838,-4.015828,-10.053327,-13.4660635,-11.126181,-13.527286,-12.727443,-6.675126,-4.411479,-7.4798946,-9.260577,-1.1172732,-7.0114884,0.7034583,-5.45752,3.8359258,-0.67957485,1.893951,-5.722293,-0.9414411
0.23224193,0.7486665,1.8194239,1.3553661,0.49251178,-1.088547,0.4429226,-0.22965473,-1.2421715,0.78970426,-0.66759026,0.8022648,-1.6532977,-0.3975632,-1.6163405,2.5449734,-2.134607,2.9725366,1.0596764,-1.298843
-0.67244273,-1.8246241,1.3005965,-2.8759656,-2.739804,-2.6954331,-4.093874,3.3958664,-0.3720061,2.3584626,3.479683,-1.1571795,1.5796316,-3.4050593,-4.27443,-4.5409737,0.43746984,1.8678284,4.6640487,0.63710785
-1.8572857,0.72209114,-1.0049475,-0.6485359,0.96940815,1.903219,-0.28633574,0.5412682,-1.2035832,-5.25458,-3.4693494,-6.322148,-1.6424525,-5.2173405,-2.892176,-6.99618,-4.98407,0.7351037,-8.306326,-8.548659
-0.34527454,0.005400467,-1.6095331,-0.39919543,-1.0571607,-5.00238,1.6897004,-1.9022039,-5.696858,3.557042,6.210042,-4.275053,3.8101547,-3.7018075,3.593547,4.6471324,-4.1561227,-2.74879,-2.901755,0.18679163
-0.4458466,1.0694345,-1.6286901,-0.5140658,0.5865024,1.814466,0.50072443,-1.8548181,-3.2600625,0.7121556,-4.185863,-4.837763,-2.9931896,-0.9060397,-1.4401708,0.53321296,-4.1469145,-1.3330615,-0.9379438,-1.4709768
-0.6332366,-0.1956851,-0.048405133,0.8370192,-0.20703815,-0.88136995,2.9733346,-1.2096981,-3.0772767,2.0466347,-0.34588462,-0.32207224,0.89349324,-0.30624005,1.0660639,1.9937022,-4.7893014,3.9582038,0.24942765,0.13283764
-2.2528768,-0.19149159,-1.0568913,0.6110655,5.473463,-1.8245494,-0.5605307,-1.8286805,-6.197392,2.992415,-2.2759652,-7.467193,-0.060074445,5.2196374,-0.34338653,1.2809155,-6.364316,-2.1587064,-2.5333083,-0.20978987
-1.6348166,-0.46754777,0.3938384,0.6647758,2.9858212,1.1302387,-1.0734975,-0.9225779,-1.8385571,-1.630227,-3.7315192,-1.9438224,0.013904477,-2.540325,-0.99255097,-2.4824283,-6.176659,-0.23564173,-2.663992,-1.498052
-0.8395337,0.25275716,1.6386105,0.27838564,3.164276,-0.8547508,2.4670362,-0.46739522,-2.036193,-0.3301345,-0.35310975,-1.2826496,-0.8827277,1.0580184,1.8857688,-0.520773,-0.031572465,-0.63488275,0.8669489,-0.9939489
-0.3030665,0.19201383,0.935891,0.966316,-0.3705471,-2.0272043,-1.5253605,0.07628679,-1.0201147,4.9707026,-0.541071,0.38829705,-1.9867344,1.5919523,3.8688283,2.2199132,-0.5331151,-0.16540223,-0.12796451,-1.5293366
-0.2445862,-0.7468625,-0.36480367,3.04321,1.2433532,-0.09132949,-0.7104186,-0.9487869,-3.6277125,-3.6585808,-6.0705853,-5.706317,-3.4558434,-6.2602816,-9.25802,-7.026448,-13.452725,-3.1006944,-12.379191,-7.165153
0.2983529,-0.1419434,-0.1811161,0.14144519,-2.0431392,0.8575121,0.37752557,-1.1860329,-0.9783437,-1.3676878,-1.9145614,-1.6328026,-0.8393983,-2.4419627,-4.6241193,-1.0998335,-5.0233417,-2.459999,3.8250735,-4.1006227
-1.1047738,0.60044044,0.7052941,1.7026957,1.0394038,0.6532247,0.34203225,0.07222244,-1.8662308,2.0254433,3.566338,0.162324,0.23365289,2.3483074,-0.27384144,1.0271099,-2.363504,-1.9497479,8.299927,-0.10405282
-0.48849437,0.5090165,3.915926,0.14699136,3.5680768,-1.8656255,1.7287309,1.3460406,-4.1622505,-1.1556818,4.3351955,3.6289682,-2.850048,-5.178048,-3.527757,-8.679167,-1.7761847,-3.2403278,-1.1320179,-2.7343853
-1.8069158,0.48308545,1.3067561,2.007016,-0.1950638,1.1423098,-0.1936041,-1.8426657,-0.7505269,-0.103324294,-1.8225688,-1.0274622,1.7739732,-0.93841356,-0.023861144,-3.379042,-9.589484,-1.9510126,-9.073686,-5.047183
-0.121720865,-1.3786478,2.0586493,-0.5332607,1.8094057,-0.6567613,0.059584264,0.14222367,-1.0469143,0.68903285,-1.2534727,-1.0084445,4.074313,-2.5440404,-0.89334244,-0.2993287,-4.280281,-0.20578514,-1.4018424,-1.7872273
-0.8760246,-0.69344777,0.9869618,-0.8828418,-2.0963728,-0.62417084,0.040684354,-2.1730993,-3.4651873,0.02088764,-3.228583,-1.1016369,0.72305495,-0.5590362,9.294034,-1.6000799,-3.7096643,1.3389093,-0.51956683,-2.0482378
0.3660102,-0.46574587,0.03712474,1.3203329,1.3168334,0.19718522,0.35910064,0.018618979,-2.4902992,2.284028,1.0949899,1.803828,-0.3397977,1.8863338,1.994208,2.637173,-0.13662398,-0.8647408,1.349638,0.1305689
0.0053287,0.23268633,0.2359878,-0.5607112,-2.3722885,-3.693539,3.2787263,1.7483897,-2.2054076,-0.7917423,-4.3945475,-2.5389729,2.6187334,-1.0341914,7.0020285,-3.1463232,-2.4343667,-1.4926301,-1.6445436,-4.1240754
-0.6985177,0.50655955,-2.148575,2.4867744,-0.4393338,-3.4196823,1.4200988,2.2901535,-0.2802656,0.39975348,-2.4213414,-1.6060938,4.9377685,-3.250941,-2.753599,-7.706378,-10.192085,-5.544173,-10.296193,-8.990176
-2.532749,0.8884569,-0.43770412,0.8208325,0.16813178,1.0194138,-0.54869264,0.5326266,-2.1184113,-1.6652704,-2.1079233,-6.116171,-0.96616465,-1.956597,-6.2243195,-6.0278945,-6.1634016,1.8067172,-5.172302,-8.222433
-0.7147363,0.3139207,1.5470998,0.31984562,1.5335739,-3.0784543,-0.42510167,0.07738683,-0.8729761,0.80978817,-0.14240025,-0.75759846,0.82123363,-1.3454984,-0.9888813,-1.1932936,-3.6676857,-0.7883711,-1.4607725,-3.1999826
-2.5368493,1.3649945,1.5572157,-1.4463733,-0.96963674,0.8751103,-0.10161343,-1.6112995,-4.4466023,-4.5420446,-7.398042,-5.343341,-2.2741435,-9.46274,-2.7843492,-7.1670613,-8.693421,-2.4966493,-13.302788,-8.995104
-1.9099307,-0.48679525,-0.8074798,1.1394508,0.19440444,-0.79234326,0.7674572,0.10650328,-0.51251626,-1.118804,-2.3240063,-3.3587344,3.2079625,-1.9315926,-3.312555,0.29141098,-4.7370744,-1.0188717,-2.134384,-3.4172418
-0.5779076,0.9203586,1.3548783,-0.36018988,-4.1246033,-7.987644,-3.3295484,-1.3841871,-8.35823,2.9547074,-1.2751144,2.4667575,-0.9827514,-1.7497141,-0.8450651,4.5240765,0.1733119,1.1237872,-0.39991665,-0.03920536
-0.84452087,0.28470424,1.5760468,1.2676481,-3.7818816,5.606378,-4.098618,-2.734314,-3.8174832,1.6958352,-3.0186388,0.18098722,-0.892221,-1.8415978,-4.904812,-3.0384605,-8.31205,-2.4324079,-14.5484705,-5.921171
-0.5370805,0.9133491,1.3364184,-0.13178608,-2.0556629,-2.9645538,-3.2180552,-0.98031723,-3.047243,4.957054,-0.21935529,-2.2594435,-5.9671636,-1.2554106,-2.1781762,1.1207261,2.369987,-1.4177029,2.4213529,6.5152097
-0.10436362,0.29732832,1.4741819,1.0485052,0.28408977,-0.24885431,0.7746124,-0.8240618,0.4997479,2.1223874,-1.6062325,1.9088128,-0.055442806,-0.9468034,-0.8904129,1.6342756,-2.3355854,-1.0600965,0.90695703,-1.7703509
-0.21864103,0.83183336,1.2296201,2.7211056,2.9987772,0.3557486,1.1069901,0.71133184,-0.77499217,3.458286,1.2003022,-1.7020092,1.5052785,0.39646763,-0.7062108,0.8989184,-6.195522,-2.7626686,-2.117166,-0.28729716
2.3734102,1.2337921,3.1508672,1.6406317,-1.6357002,3.0748646,-2.5165603,-2.3177824,-2.6970575,-2.4820664,-4.3855734,-2.7029734,-2.1629603,-9.455958,-1.975759,1.0744716,-4.998999,-6.0127244,-8.942062,0.178879
0.14741738,1.293089,0.8400676,-0.18113434,-2.9258826,-2.161743,5.476259,-0.5813006,-1.2095078,0.7541222,-1.3528613,-0.60022026,-3.4064617,-3.1095917,4.3312097,0.7299456,-2.9162912,-0.8790654,-0.8214347,-1.7130853
-2.1017923,-0.017629521,0.31713158,2.3510628,0.22019611,-4.1070623,4.944819,-0.59618753,-1.8788719,-2.0263565,-2.411505,-6.7783937,0.80627555,-6.0124135,-1.678233,-6.461836,-15.7160225,0.6222894,-3.5964117,-10.236805
-1.1826828,-0.2804656,1.52741,1.0989149,0.16886824,-2.4498174,-2.01552,-0.7454621,-7.5858874,-0.05495778,-3.082913,-4.280327,2.5204363,-2.4190938,8.515041,7.548569,0.68571556,-3.3629708,-0.5905866,-0.92603713
-1.2401758,-0.3303887,0.82653666,-0.5931463,0.72710097,-0.25833163,-1.7633647,-1.8427858,2.5739124,2.5657008,-1.1274793,0.8143979,1.8529052,-2.0735378,-1.3336885,0.20601806,-1.9291989,5.52856,-2.701446,-2.7968493
-0.49108896,1.0271059,0.8888831,1.9410557,0.15458408,-3.4170935,0.12224645,0.44635463,-1.930294,4.8711414,0.928606,1.4843525,2.616488,0.60268015,-0.04228531,4.118135,-2.7065504,-0.7681188,0.92218536,1.2244238
0.6865855,-1.0823691,-2.1757956,-0.9935696,1.1284236,-2.3870625,0.31536546,-0.6554189,-4.722566,0.49965432,-4.9563246,-6.890504,-3.6223598,-5.0822735,-3.0692892,-3.9323356,-7.5821285,3.6733878,1.151036,-0.76273936
0.10443303,-0.5862269,-0.2482335,-1.1468068,1.6354216,-0.5033924,1.0313063,1.0976123,0.7969065,0.97676873,-0.5903247,2.436023,2.8239312,2.286876,0.40418613,-0.82578975,0.09856398,0.12655681,-1.4923233,2.214228
-2.0804734,-0.1364487,1.0591588,0.53379464,-1.3274263,-3.666548,1.0080876,-2.0213628,6.826994,-2.4154134,-6.7393284,9.049625,-1.8297079,-1.4001126,3.4028127,1.8727019,0.23954692,-3.7661712,5.6842794,-4.655341
0.43360355,0.07043088,0.56369317,-0.770846,-1.8987049,1.5592451,1.429178,0.0313535,-1.9980278,0.9157054,-1.954704,-0.5188699,-2.5842562,-1.220295,-1.2580034,2.9004493,-2.964566,0.19066486,0.42272395,1.2793851
-0.3299197,1.0841043,0.27185065,0.32611558,-0.6089913,-2.4627185,-2.3135448,-0.8808259,-3.7573385,6.038663,1.0263298,2.783205,-0.784236,-0.15983874,2.496035,1.098042,-0.99131036,-1.512008,0.30384076,-1.3038473