1.1416302,-0.5531922,0.55371636,-0.7098129,-1.667146,1.3975557,-0.7685245,0.84705377,-3.3979778,-2.931869,-0.9451537,-0.4582339,-2.297802,-2.2815084,-3.957907,-2.659489,-6.891069,-2.493574,-9.837933,3.7167523
1.3874834,1.1660508,-2.8124459,-7.9907713,-6.0943594,-2.675784,-2.8173037,3.6125135,5.0380116,-3.8038735,-0.5458896,-9.884516,-1.9196734,3.9846475,2.135828,-6.738426,-3.8389652,-7.948254,-4.816235,-3.4281378
-3.3538117,-2.4244554,-0.7486753,-0.4052057,0.7015213,1.7514087,0.507487,-1.74443,-2.8607552,-2.5868907,-1.6942848,-4.966193,-1.8655127,-4.24644,-6.150376,-6.1566186,-7.762316,-2.9178636,-5.922925,-7.593423
0.082457565,1.5090697,1.4182092,-0.37585622,-1.1352901,-3.970031,2.0277734,-0.050205704,3.7905228,-1.6638117,-1.4026111,5.507396,-2.09616,3.2894745,-6.214107,-3.495001,6.19109,0.7660525,-3.219227,-0.2378784
-1.0071515,-0.55702925,-1.714094,3.4932218,-1.5949876,-1.5494919,4.0679297,-0.6900454,2.4033885,0.07354704,-1.6601651,3.9649484,-0.36261922,2.0129883,-3.527641,-1.4799466,8.110428,1.5856987,1.3537571,-0.28353626
0.07009967,-0.8863395,2.2002106,1.064253,1.2378172,-0.07601924,0.11253747,-0.83924025,0.00096900587,1.715688,-4.352816,-6.5181084,-0.92556304,-1.9678575,1.4181473,-0.5048665,-5.430025,0.07185989,-3.6563263,-5.47941
-1.7028106,-0.28633532,1.2924383,0.13273339,-0.36608627,7.019411,-2.2238002,-0.42937055,-2.0231583,-2.561795,-2.3179471,-2.5119796,-1.5699419,-0.6852918,-1.7273259,-4.3969226,-9.665334,-1.6852474,-6.107397,-8.980689
-1.2406647,0.15576851,-0.24213429,-0.27915344,0.42051217,-0.22633605,0.9382468,-0.8430165,5.9739227,3.2619166,-0.44071266,-1.1706932,-0.99412733,-0.58233935,-2.0702212,-1.5862274,-3.9038465,2.6918595,-3.5730474,-1.7071041
-0.21511088,1.3032992,1.921411,0.7763002,-1.2070785,-2.1834366,-0.020969009,-0.5892501,-1.9250875,4.159769,1.053839,2.7669542,1.12282,1.3790333,6.066633,2.2104194,0.90297306,-0.37577638,0.99456006,1.3788335
0.008383154,-3.6686254,-11.322202,-14.679009,-11.727592,-13.548263,-11.506776,-6.4425774,-4.0742064,-7.9708586,-7.7781734,-0.7448425,-5.8644857,0.7718903,-5.703375,3.6350884,-0.7489308,1.8044719,-5.1415033,-0.17621402
0.23121168,0.74094653,1.7642725,1.3359354,0.4491857,-1.3067992,0.34838533,-0.2352427,-1.263851,0.71033335,-0.43665874,0.6322152,-1.7111635,-0.36384428,-1.9853216,2.7788198,0.22073737,3.002357,1.32343,-1.5660242
-1.2522383,-3.2129138,-0.01619311,-2.2440557,-3.0744898,-6.259718,-1.7104666,2.982722,-0.5130941,2.8105564,2.8734744,-0.42369828,0.8570393,-0.5085288,-6.0392113,-1.5796778,2.2038395,1.4494593,4.496509,2.0410519
-1.8684934,0.8072556,-1.0461469,-0.6781034,1.0459759,1.8729035,-0.3316504,0.38478392,-1.3531735,-6.0384045,-3.2440472,-7.319844,-1.187962,-6.339514,-3.2396617,-6.933276,-5.1619287,0.45884278,-9.006295,-9.049624
-0.29869908,-0.03387389,-2.0898447,-1.3758043,-3.1645074,-3.2866046,2.1218557,-2.3123984,-5.961962,3.5855775,7.178846,-4.1802273,5.697406,-3.3841841,2.6775498,3.4270332,-4.287843,-2.8666065,-2.7262983,1.3141085
-0.44716305,1.094666,-1.6370462,-0.512033,0.58070236,1.7847401,0.46378568,-1.8959738,-3.3013184,0.95735425,-4.1577997,-4.9838066,-3.2349267,-0.97521013,-1.6084572,0.59908766,-4.582161,-1.3354937,-0.82659376,-2.3512554
-0.63642085,-0.1962261,-0.05099629,0.682878,-0.2741103,-0.8899246,3.30452,-1.2162771,-3.0954003,2.0266154,-0.33260754,0.26562542,1.2525339,-0.29802865,0.8756609,1.7118114,-5.038215,3.474232,-1.2761174,1.8122742
-2.613636,-0.32919124,-1.3880947,2.4153478,5.7199464,-1.8123256,-1.8811213,-1.5476072,-6.8323708,3.5383055,-2.7051034,-6.4806275,-0.16554391,5.9556646,-0.4267128,1.8443522,-6.733496,-2.9865253,-4.4119077,0.07836796
-1.6359326,-0.46627024,0.39244956,0.67113185,2.9862893,1.1291476,-1.0970685,-0.9258107,-1.7981027,-1.8120508,-3.4020522,-2.0799973,-0.33333415,-2.6462312,-0.97055906,-2.3664157,-6.1797395,-0.24143338,-2.631043,-1.7272862
-0.8414118,0.25267452,1.6270533,0.24308224,4.0087996,-0.9563505,2.4290538,-0.47412753,-2.042509,-0.43288758,-0.4477538,-1.4762523,-2.168597,1.302441,1.9907308,-0.457881,-0.40584353,-0.7021138,0.9034531,-1.1747993
-0.30461583,0.1833582,1.1070174,0.889386,-0.40966734,-2.1515563,-1.6306552,0.09527597,-1.0457817,5.39213,-1.1545907,0.41086584,-1.5353659,1.7410791,2.4265602,2.0296392,0.17482652,-0.19883439,0.06838543,-2.2979984
-0.23256524,-1.0163969,0.05726334,3.3173,1.0885855,-0.19394664,-1.2106742,-1.0129571,-3.858695,-5.6497755,-5.902323,-6.585981,-3.30663,-4.3059955,-11.577477,-5.024451,-10.741035,-3.7723744,-11.473588,-7.23082
0.33553967,-0.15681481,-0.27467433,0.13706778,-2.0966218,1.0897341,0.27788103,-1.2138325,-0.9473865,-1.510621,-1.8674362,-1.9226876,-0.588144,-2.4288142,-4.8858037,-1.4240146,-5.832677,-2.5179622,6.43012,-8.303483
-1.107969,0.61584765,0.6988358,1.7029306,1.0297774,0.6283858,0.18792112,0.049587373,-2.076801,1.9801084,4.2003493,-0.0065490576,0.13167566,2.7191901,-0.33324888,1.189651,-2.914779,-2.0498254,9.12638,-1.3540915
-0.5905143,-0.07786524,4.626102,-0.43087363,3.485416,-3.6991007,3.096392,1.8641545,-2.356489,-0.16382863,4.435085,4.1708503,-4.072949,-5.875953,-3.2189186,-10.324074,-3.2316895,-3.6997833,-0.69241434,-1.9731474
-1.8161261,0.51500535,1.2884318,1.9935164,-0.21962108,1.3961693,-0.55608773,-2.0126054,-0.79336476,-0.06531995,-2.0481327,-1.1515442,2.8367085,-1.036852,-0.51796246,-3.3886726,-10.347733,-2.1196177,-8.9027,-5.3523426
-0.14223823,-1.4618696,2.3671434,-0.9347969,2.8401592,-1.1940571,-0.7469594,0.1498579,-1.1832504,0.50545985,-1.0485643,-1.8880205,4.571875,-3.3420267,-3.6910756,-0.5611915,-2.0418274,-0.6259381,0.6808108,-1.6079924
-0.8617474,-0.7443734,1.2871757,-1.0754833,-2.2425036,-1.5014883,0.60815495,-2.2848198,-4.256513,0.5978437,-3.4035807,-2.2738488,0.70850694,-0.25480005,8.523056,-2.4795315,-1.9054593,2.944679,-0.22154897,-4.8478727
0.3656346,-0.46782953,0.03717517,1.3639759,1.2961848,0.17640454,0.18750952,0.015573126,-2.5003107,2.3193698,1.1587461,1.9408646,-0.48225415,1.9277868,2.1505687,2.6769829,-0.03990291,-0.876794,1.3653774,0.2147752
-0.03550764,0.19221343,-0.14696519,-0.56167954,-2.969866,-3.4184718,3.536634,2.1177015,-2.5627449,-0.94391835,-3.882971,-2.1596768,2.6649692,-0.7774086,6.8684335,-3.3521554,-3.455597,-1.4175245,-1.3430812,-3.7091765
-0.95404065,1.1066347,-2.008174,2.4809504,-1.735607,-3.8348172,0.93364197,2.3549118,-1.2692512,0.8612194,-3.424017,-1.1519291,5.563439,-2.7844374,-3.8580818,-6.7951994,-9.993753,-6.231471,-11.406107,-7.5382733
-2.5795112,1.2385213,-0.56445146,0.7936086,0.13131095,0.9360081,-1.6254438,0.5195319,-2.9837255,-2.0833693,-2.425978,-6.7012115,-2.59145,-2.1790836,-7.9930696,-4.4384737,-7.0629044,1.9820706,-5.8708363,-9.571638
-0.7171854,0.32871538,1.5386869,0.2720923,1.7757752,-3.1899664,-0.7138912,0.058438465,-0.88276047,0.75853974,-0.15381673,-0.7700773,1.5894982,-1.5132169,-1.0926782,-1.1340342,-4.706498,-0.88534135,-1.6257955,-3.4563859
-2.7032137,2.037199,1.4245362,-1.4571296,-0.9947679,0.7338575,-0.8453595,-3.1232173,-5.209959,-5.2200427,-9.380612,-2.538141,-2.9091115,-5.738998,-3.085055,-4.812635,-6.4584513,-3.4213858,-15.955385,-12.278646
-1.9174266,-0.48185682,-0.81259537,1.1510875,0.18731612,-0.802243,0.48324487,0.109963685,-0.57032114,-1.3687913,-2.4038556,-3.8658571,4.1210346,-2.0978465,-3.4884295,2.2226143,-6.920638,-1.1043096,-1.9268998,-4.6282177
-0.5817092,0.9198649,1.3558518,-0.3679439,-4.125275,-8.0213785,-3.2375853,-1.3857452,-8.412318,2.9615977,-1.2770681,2.4771864,-0.9913205,-1.7508043,-0.8496576,4.630427,0.17177482,1.1167816,-0.3829453,-0.20463574
-0.8690175,0.1571519,1.659851,1.1422957,-4.1062307,6.7582726,-3.6647131,-2.8173988,-0.5953751,1.9669276,-3.0847185,-1.1127571,-1.2967625,-1.6784642,-3.9774756,-1.8837268,-8.622742,-2.1073062,-13.469482,-5.082712
-0.5400621,1.1091584,1.090038,-0.097023465,-4.4151745,-2.3793118,-3.6593485,-1.0999181,-2.9813123,3.6279187,-0.031153234,-0.7803955,-6.1812096,0.27577642,-2.382157,1.3345295,0.076881535,-2.400781,4.303539,7.0450025
-0.10370104,0.29926553,1.5400646,1.0106236,0.22199698,-0.3494943,0.6123316,-0.83960533,0.46211413,2.2090962,-1.6055889,1.8543423,-0.13271001,-0.86271924,-1.1942843,1.7988027,-2.7438667,-1.132132,1.53877,-2.2320032
-0.22634977,0.8272491,1.2261546,2.8000777,3.0992389,0.29043347,0.3314171,0.6891079,-0.80004555,3.424261,1.170819,-1.8351943,0.3121184,0.3685015,-0.9859851,0.80630016,-6.659003,-2.8509758,-2.2112575,-0.62784487
2.952938,0.73819816,2.7857335,0.9186668,-2.4166124,3.0725923,-3.903243,-2.4612758,-1.5143256,-3.6901736,-3.6264577,-3.1421955,-3.128721,-6.534998,-1.1872036,1.5876329,-4.2623324,-6.782566,-6.2132354,1.3994882
0.16513956,1.4048817,0.7262887,-1.6355808,-3.5021956,-2.678943,5.9725757,-0.52779615,-1.8476931,0.44622794,-1.6725107,-1.4056096,-4.5042224,-3.3824933,3.2953703,1.2532457,-3.2762902,-0.93592936,-0.73734164,-2.6195788
-2.2752259,0.02952151,0.25841543,2.059069,-0.2320487,-4.468886,5.5552874,0.26229185,0.3789898,-1.6698893,-2.2612574,-7.2129536,0.39878422,-6.9982185,-2.733094,-6.3336573,-18.620667,0.9458371,-3.811855,-9.001259
-1.1539272,-0.258951,1.5427616,1.0503825,0.049119383,-2.883333,-1.9394071,-0.918425,-4.94347,0.47374365,-3.35296,-6.110994,0.72757185,-1.6723458,8.293824,8.193886,3.1890187,-3.424206,-3.5889406,0.1658153
-1.2520247,-0.35134646,0.8348287,-0.6089068,1.0575742,-0.26904225,-2.1319952,-1.928296,3.1941164,2.888021,-1.2336272,0.6487478,3.141862,-2.7589529,-1.8599061,0.40386853,-2.1852798,6.3319244,-3.9084241,-3.9282405
-0.49374607,1.0463461,0.8692592,2.2032368,-0.20538713,-3.5344806,-0.56598073,0.49945065,-1.9727936,5.019716,0.48785797,3.4019885,2.0692434,0.52627045,-0.2363855,4.243408,-2.8464057,-0.80971235,0.9509929,0.8368508
0.9025234,-1.1557915,-2.451011,-1.4209193,2.3003068,-2.6503713,0.18544815,-0.88349867,-5.4182324,-0.4825815,-5.6253695,-7.4821024,-3.2183483,-4.4704347,-5.052613,-4.6065464,-7.7506337,4.218799,1.2143495,-0.66160077
0.08150633,-0.5900768,-0.3357991,-1.3102478,2.2400715,-0.49259636,0.72387534,1.123062,0.7516918,0.7695793,-0.8518094,3.146768,2.5455823,3.0538218,0.006234959,-3.1017904,-0.29255223,0.098814435,-1.4837967,7.449939
-2.2123787,-0.093220375,0.9751501,0.29970142,-1.9416374,-4.2002296,0.5629223,-1.717942,7.096303,-1.3869326,-6.355181,9.460976,-0.79171365,-1.321055,3.8772314,2.8215535,-0.62166905,-3.8441954,6.5581346,-5.762281
0.43282896,0.0657788,0.5474707,-0.843835,-1.9405067,1.9586947,1.4202915,0.029525595,-2.023489,0.8838395,-1.8665459,-0.72793424,-2.6601284,-1.1937202,-1.3321344,3.9865618,-3.6864476,0.1449923,1.2276155,-0.43309104
-0.33056363,1.0852141,0.26955265,0.5669028,-0.93161166,-2.548522,-2.8655665,-0.8891221,-3.9528992,6.6715975,1.2620019,3.1361234,-1.2857887,-0.081185214,1.5705028,1.0145632,-0.9874909,-1.5315228,0.24101272,-1.4083318