4.5392494,-2.821269,-0.015073675,-4.7820787,-4.5863547,1.8791692,0.5650513,0.51048064,-2.510251,-15.462032,-0.30057555,-2.9325414,-3.13442,-10.160443,-8.9542465,-4.086149,-5.4155235,-11.545691,-13.167185,7.624469
3.60944,1.9362992,-5.4019127,-12.914818,-11.516801,-3.3224082,-3.4367776,8.033597,6.812856,-7.865315,0.8596563,-13.22574,-7.344722,5.2253637,3.219323,-9.582294,-8.458149,-10.98427,-6.026357,-10.227774
-3.3191156,-2.2469754,-0.77301866,-0.2321085,0.67899954,1.5667186,0.43176,-1.9242537,-1.8363743,-3.3994694,-0.8107221,-10.836507,-3.5100741,-2.9710963,-9.899543,-3.8940015,-9.197343,-4.9230833,-10.491862,-11.654982
-6.3957095,-0.45252952,-3.272071,-7.5554137,-0.73578924,-5.8329964,4.293309,-8.087842,-2.9143248,-8.543729,-2.9817567,8.385045,-6.5272427,1.7001435,-8.746947,-0.82764226,11.694468,-1.7094808,-5.751648,0.33321893
-4.188151,0.37443095,-3.343349,6.7746415,-5.1207643,-1.2919875,6.4631925,-0.82928556,3.8850007,-3.6307096,-4.995212,5.0940294,-2.8973222,7.9707837,-9.118606,-4.4489174,10.184987,-1.1230531,-1.9529477,-6.1501703
0.7857465,-2.2119696,3.3343837,2.1576476,-0.7179043,-1.18656,-0.5398302,-2.4901721,-0.86941904,-2.1439161,-4.4791074,-10.903885,-5.455128,-4.757466,-1.4568312,-1.028005,-3.4800646,-1.5677776,-8.1600275,-9.758555
-4.403524,-0.5386136,-1.0673298,-1.5403556,-0.28681168,11.179105,-1.6531613,0.63308966,-8.021625,-7.813708,-4.0117364,-1.8062482,-1.0113934,-3.756279,-3.207335,-8.7931795,-4.4336348,-6.478963,-7.9921813,-11.68424
-1.4153372,0.81597483,-0.77046347,-0.81643933,0.5457983,-0.6517054,-0.8231747,0.23771681,11.733819,7.373444,-4.6080194,-8.00146,-3.1891975,-5.0818,-9.845481,-1.575994,-3.225335,4.194239,-1.5681715,-10.0929365
-0.30236316,1.5727366,1.124874,1.4692985,-2.6278272,-3.4459655,3.6417227,-1.5309724,-2.526913,5.239878,3.4615896,0.60951424,-2.3548095,-2.7048476,8.846466,2.8000865,3.914867,-2.1417258,-4.1574545,3.6784067
-0.21522737,-4.5557747,-12.1785145,-15.745264,-12.478346,-20.780539,-10.490856,-10.405903,-7.6591516,-11.744134,-12.404469,2.2904212,-5.9491067,1.8929315,-10.778776,5.397401,-1.8527988,5.0506816,-6.6299286,-0.3411216
-0.61014235,-0.80770344,4.477354,1.9845903,-0.72576183,-11.1362915,-1.408605,-4.3510528,1.7020137,-3.4703572,-4.9099503,2.5946472,-4.565095,-6.4400034,-1.1397666,4.508689,4.0267897,5.6113815,-7.1065607,2.7361865
-1.2533469,-8.240636,0.73885417,-10.177899,-9.51352,-9.533754,-3.0571785,5.4389343,-0.37315443,3.3872209,4.738046,-6.207093,1.1147811,2.4508443,-8.710225,-8.246468,6.4607835,1.1815383,8.383179,0.4803306
-1.9962023,0.8642499,-2.7273414,-1.1181865,2.2249444,1.8840103,-1.865745,-1.0881758,-1.8425972,-2.7515264,-5.4617786,-3.2634304,-3.1845853,-6.488534,-2.854204,-11.199541,-9.679588,1.5184621,-3.2818017,-14.275309
-2.0529716,0.6329562,-2.93668,-7.696331,-2.2071776,0.026337693,5.252926,-7.814213,-6.4481955,6.6177406,11.167401,-11.032068,7.45803,-2.1999142,2.4323394,5.24337,-4.480181,-0.9521695,-6.641398,0.23332836
-0.5714529,1.5143591,-1.6933118,0.30366695,0.29984456,0.121979445,-0.7821579,-2.4989045,-8.808433,0.50192374,-9.529412,-10.803842,-9.8428955,-2.2742503,-3.4333034,-6.678866,-10.178108,-2.4960387,0.6124791,-3.201245
-0.64962715,0.43467012,1.8381869,2.8377657,-3.1517599,-0.77131754,4.938997,-2.0734522,-3.653739,1.8198484,-4.7555127,-2.1451738,0.9839516,-0.6084302,-3.2694137,0.14223835,-10.751045,8.3051405,-5.405488,2.5517955
-4.677448,-0.17205255,-4.0724998,3.7108505,9.603066,-1.3878692,-2.9424493,-5.5746202,-9.043595,5.3260193,-7.7389574,-10.107928,-0.7311767,8.996572,-3.876153,4.4581785,-12.379852,-7.6405063,-5.6859636,0.03388956
-1.707088,-0.42774245,0.22322702,2.0424407,1.684259,0.30766675,-0.45247242,-1.3927404,-2.0721576,-6.069476,-5.1752996,-11.258088,-9.33763,-4.264715,0.74293303,-2.5644007,-12.405897,-2.7858353,-14.472563,-9.966563
-0.8852306,0.31524885,3.7152305,0.7467911,11.686416,-7.5838404,-1.7511292,-1.0232182,-0.8648759,-6.7719254,-5.782825,-10.494325,-5.7270575,4.3669543,-4.0158453,-5.853368,-3.6426237,-0.9370231,4.243272,-5.8407316
-0.7562141,-0.4245278,1.8282076,1.6064157,-0.84707797,1.8202903,-3.22788,-0.18746562,-6.684968,9.647214,-2.0278804,-3.4528825,-5.9697638,-0.70062387,-0.25263453,-0.47297633,-3.1821098,-2.9861355,0.030596541,-8.460206
0.90632004,-2.3254552,-0.50230455,5.6338387,0.7321635,-2.5193467,-1.8014747,-2.7503967,-4.691706,-7.749715,-14.2911825,-7.9982033,-5.499946,-6.7695746,-14.142284,-6.482462,-12.399669,-7.8013415,-5.4424906,-9.640374
2.320684,-2.1086385,-2.3408353,0.3452708,-1.8567635,2.117023,-0.7807238,-4.5671945,-6.0978785,-4.103446,-3.0526698,-3.8597686,-3.0889397,-0.25518793,-5.4192576,-8.909233,-4.1910663,-3.976731,1.4647025,-4.584101
-1.251993,0.9599184,0.6933329,-1.4751122,0.755888,0.15104534,4.387022,-0.7829946,-5.5005546,0.6305893,13.684915,-5.853713,-3.3299747,4.809758,-0.29591307,-1.4048346,-3.7930949,-2.3502219,11.0849085,-1.3606308
-3.4848819,-2.681944,5.306018,-0.7746695,3.8020024,-6.5426884,1.7667273,4.945454,-0.8170366,-5.2204866,8.196717,8.057271,-9.009244,-6.1349435,-4.2591777,-8.469371,-13.39321,-9.3048525,-1.8303185,0.87625694
-1.9057155,2.2365162,1.3354026,-1.2396632,0.06441794,0.34844926,-1.7757598,-3.1259365,-4.0040402,-2.2745888,-1.6981306,-4.5252795,0.51837295,-1.3016558,-6.191356,-3.9786425,-11.872834,-6.180287,-9.995003,-7.7851853
-1.3302958,-2.7586348,2.4654922,-3.8728309,4.488156,0.04434305,-0.021241063,-3.915022,-0.58161247,-2.7534873,-4.8620186,-9.114286,5.7081647,-3.6763062,-4.919481,-6.8970556,4.995752,-3.3879468,0.50838906,-3.5912366
-1.4581962,-1.1949674,2.5357304,-3.6985388,-3.9584079,-1.9284041,-0.18331222,-5.1611366,-4.821395,-2.9768195,-6.002061,-8.591585,1.4402783,2.0058255,7.799281,-4.225368,-6.375816,0.8533423,5.205699,-10.770445
0.3704143,-0.03446509,-1.0982053,2.9170732,1.5796261,-0.85031295,-0.07989095,-0.059382662,-2.4517915,0.9792377,-2.0253687,1.6487665,-8.472843,-0.966939,2.8632975,-0.3204315,-1.9261391,-0.9789921,-1.906863,3.7328248
-0.6155076,-0.35816434,-0.8210203,-2.6962538,-6.757385,-3.276445,4.253954,4.2936926,-2.4416678,-3.264596,-11.092172,-6.492701,3.2122312,1.8969921,7.664478,-8.293236,-8.510686,-2.1023297,-7.131835,-3.2088528
-0.89849484,2.4467945,-3.5902014,3.3224514,-6.1341343,-8.67721,1.5399803,5.396339,-2.7739656,-1.8075694,-14.314835,-0.40846756,7.8839173,-5.472928,-9.417366,-12.318408,-18.351095,-5.551995,-17.310244,-16.00595
-2.1563537,2.8227277,-2.6217086,0.7853837,-0.8924857,-0.976104,-6.096543,3.5180357,-4.0041695,-4.5815887,-8.771137,-0.61070895,-1.8980501,-7.712899,-11.166426,-4.529099,-8.060525,4.8062677,-0.43443677,-18.811357
-0.804015,0.70104885,1.5405551,-0.9149718,2.4164236,-6.819577,-0.8256977,0.24361055,-3.1453242,0.8082952,-4.123924,-3.4647937,-1.5032562,-4.9545445,0.6171926,-2.2687354,-8.342571,-3.8425276,-6.510953,-6.298425
-3.1373796,4.7032113,2.120384,-2.8443732,-1.4290186,1.0530994,-4.797714,-6.109864,-11.032947,-11.334566,-17.275015,-4.628663,-4.183167,-9.143667,-7.663548,-10.603203,0.1646566,-7.8606315,-17.87451,-19.245224
-2.0434053,0.7118646,-0.82189304,0.57819706,-0.73983246,-1.2303349,0.5088059,-3.2063735,-3.447498,-1.3432204,-9.746929,-10.801517,5.458338,-1.1705912,-8.518716,-0.32376087,-9.30373,-6.238223,1.9964079,-7.1999474
-0.21580918,0.52416027,0.95357895,1.3645799,-6.1338143,-10.219827,-4.179685,-1.3286183,-5.926991,3.4772193,-2.0591896,1.4858898,0.6780385,0.20649973,-3.1129181,3.9455047,-0.29050684,-2.6065652,-5.4381924,-0.99597937
-2.122914,0.25066403,1.8822201,0.34698603,-5.605525,10.481699,-9.851679,-7.1680655,-5.168209,1.5834798,-4.8066163,2.6494412,-0.22456226,-1.3195257,-4.045109,-7.1495495,-2.482263,-6.097819,-22.686073,-8.385808
-2.1021173,3.4518628,-0.38439068,-0.24210623,-4.6567574,-4.375205,-5.2654276,-3.140084,-8.04436,7.2330623,-8.824432,-3.3698237,-6.9343414,-2.0897167,-5.8610897,-1.1946342,-0.7526024,-4.2626386,4.4881625,10.845737
0.38559473,1.9979806,1.9126923,0.25754952,-2.954928,-3.571648,4.2044706,-1.960045,-2.4707665,3.475607,-1.2930796,-0.748472,-1.643951,-5.4469957,-5.598934,2.0704722,-0.5314028,-5.7263193,-4.204022,-3.5759437
-0.34526062,1.1570513,0.4616945,2.9504848,6.2888646,-1.5733776,-2.8374755,0.2230333,-2.5493631,2.7608244,-0.15983373,-6.2398734,0.9510715,-2.277329,-7.2142897,-5.6828527,-10.743682,-3.4796278,-6.993026,-7.735235
3.5670242,-0.8268113,6.917649,-1.0055219,-3.746657,6.6486835,-5.5833826,-4.5755777,-3.4778073,-9.687808,-5.7774434,-8.378128,-3.6491976,-14.383977,-2.771403,3.388162,-13.984076,-14.826976,-7.001106,2.9664412
0.5146813,-3.7477162,-1.5189868,-12.176382,-8.170218,-8.866986,3.0835595,5.828737,-4.1433544,5.8799276,-4.330173,-14.296458,-5.031873,-10.496014,5.3867817,-2.599865,-2.39752,-4.4391603,-1.7514619,-10.328959
-4.8253064,-1.3085282,-0.8891847,1.2488238,-1.92254,-8.6097765,8.329729,0.4784593,0.52282304,-9.496612,-4.6463866,-10.4902,-0.020776583,-12.348268,-3.8667448,-9.8144,-18.180258,4.862894,-5.6446037,-9.196545
-3.6396587,-0.29889134,2.7950404,-1.2042047,-3.5043828,-3.8325732,-7.0876055,-1.6623683,-6.242516,-3.022893,-7.774465,-8.244251,1.0036287,-5.3152766,7.614914,11.307149,8.983091,-6.483928,2.017044,-5.453809
-1.3673646,-1.6762477,1.1371431,-0.8611413,2.6151464,-1.5310119,-1.195041,1.3791897,6.435599,6.0135245,-5.435514,-6.8542957,1.840991,-4.5243964,-6.3179336,-1.9787861,-7.798583,9.144049,-1.7404431,-9.1750965
-0.56326103,1.1552756,-2.9178474,6.2032294,-4.12839,-6.982743,-1.7762567,-1.4659026,-3.362863,5.3683467,-5.054861,-1.4025109,4.775973,-2.6891286,-5.153921,9.372003,-3.0364127,1.9610789,-3.2802613,-7.202651
3.7188177,-3.0113091,-4.2046056,-4.371117,4.1320305,-3.8667445,0.022740746,-0.48725444,-9.048719,2.336967,-10.6249695,-12.5917845,-4.452699,-6.3212233,-4.331467,-8.636419,-7.5373144,7.2053075,2.454417,-4.3944883
1.7097112,0.14482738,-5.4004364,-6.120679,4.699394,-2.766524,3.2624924,0.28059924,-5.0897565,-5.0729203,-5.7638674,3.6687047,6.1586866,3.8651512,-5.1339574,-4.323811,-6.8983045,-4.9290123,-4.4880404,9.124951
-3.4266868,0.79716897,-0.3391364,-2.0846882,-3.5834994,-5.3148484,1.9206903,-8.606341,11.867553,-1.4436998,-12.444819,11.264082,-3.5623055,1.5824065,5.7786527,5.553741,-3.0092356,-2.8291042,11.88888,-7.221958
2.9625816,-0.3686258,1.2224139,-4.647014,-2.438198,0.28629372,2.7866356,-1.7061979,-0.48343092,-3.8543603,-1.4419686,-4.9566946,-2.6036448,5.107128,-6.961188,5.4887514,-3.625379,-0.11310986,-4.5833106,-1.6488608
-0.28662837,2.1289117,-0.44796637,1.4470565,-1.5327744,-8.252224,-2.1524937,0.017554676,-5.8664412,11.529882,5.688925,1.1125103,-2.5589964,0.59148663,-4.978609,-1.6314018,-0.6537398,-2.5922365,-9.81713,-4.655677