1.2619197,-0.6381188,0.54481286,-0.54971856,-1.8251125,1.3094167,-2.0214612,0.84249413,-3.3781922,-3.505657,1.4227893,-0.6165693,-2.5497527,-2.777209,-4.001151,-3.6395059,-6.5490546,-2.489088,-8.679056,3.8160565
1.547348,0.54868037,-1.9285736,-9.814351,-6.3867655,-3.049454,-3.1169374,4.788706,5.167442,-4.2359633,0.5467809,-10.86596,-2.7012727,3.245974,1.9661176,-7.0681148,-5.1954393,-8.583072,-5.364534,-3.4322405
-3.3558607,-2.423853,-0.74877244,-0.4055742,0.70214105,1.75082,0.5070108,-1.7379315,-2.878446,-2.6336372,-1.6336658,-5.0333877,-1.881509,-4.393003,-6.269006,-6.1672544,-5.448896,-2.9407759,-5.9322286,-7.5929365
-0.31744152,0.5107274,-0.24844214,-2.7874503,-1.3757592,-9.953052,5.171192,-1.12081,3.0887935,-3.1595023,-0.62815094,7.2363963,-2.5631719,1.5470628,-5.037836,-5.1799264,8.718914,-0.74963284,-1.1067525,0.4425489
-1.0632465,-1.4040858,-3.8767602,5.4716654,-2.057465,-2.7039628,3.946168,-0.7981589,2.3325012,-0.31279883,-1.9189726,2.754455,-1.1559978,4.7674894,-3.943682,-1.9548484,8.6474285,1.6069138,1.091131,-0.4423774
0.06861207,-0.917424,2.3347316,1.1324456,1.1798812,-0.11534159,-0.13419548,-0.919432,-0.2200624,1.5650024,-3.8631952,-11.738089,-1.2247462,-2.0568547,1.3332335,-0.50739014,-9.685178,-2.466291,-3.8423429,-5.834904
-1.7224736,-0.35409793,1.3608787,0.114569604,-0.30634522,5.756633,-1.723863,-0.65532976,-2.065854,-2.6796367,-2.0763535,-2.189573,-1.6373305,-0.101240635,-1.7474625,-4.489346,-12.136422,-3.1275067,-6.296846,-9.388162
-1.2434175,0.16407496,-0.25327697,-0.28554633,0.6266828,-0.23985213,0.8655236,-0.86786914,6.507325,3.3004284,-0.43996266,-1.4613937,-1.1057705,-1.1691321,-2.2628675,-1.6320736,-3.9138582,2.6947105,-3.6255915,-1.7662377
-0.21585095,1.302198,1.9340216,0.73792106,-1.2245015,-2.1957757,0.28135785,-0.5969194,-1.942719,2.625535,3.0032365,2.7555752,1.0592412,1.3081788,5.806227,2.1862385,0.930618,-0.38658187,1.0212644,1.4991224
0.21309751,-3.7298162,-7.4182525,-15.092273,-11.605107,-13.208769,-11.059466,-6.905028,-4.159666,-8.130091,-7.51809,-2.5449722,-5.715956,0.82780266,-5.7596087,3.6542196,-0.84848344,1.5896783,-5.425441,-0.69691753
0.2254209,0.66879165,2.2610168,1.3278189,0.42252845,-3.8631196,0.2988966,-0.3881307,-1.3732069,0.56317294,0.12048176,2.6471589,-2.1730652,-0.41946292,-2.0105891,2.793103,-0.14999886,-0.44137925,1.4279778,-1.6308074
-1.6350605,-5.173696,0.30156168,-2.8196225,-4.0516453,-5.867386,-2.3572588,3.6901753,0.04487722,2.7019484,4.2129183,-4.8093176,-0.31111148,0.042030614,-6.992305,-2.3062124,5.593174,-1.3301911,4.512329,2.0983312
-1.8772818,0.76384753,-1.0634009,-0.6308296,1.0893786,1.9229143,-0.35557434,0.2317801,-0.89691496,-6.1978254,-3.106091,-7.4179,-1.3858348,-6.6028376,-3.3104885,-7.001455,-5.097662,0.37617457,-9.127445,-9.256698
-0.24994503,-0.12272728,-2.3332043,-1.8945116,-3.1265678,-3.183777,3.7454767,-3.0645921,-5.9049854,3.4322,6.9760695,-4.371064,6.741081,-3.513949,2.2412376,5.0118876,-4.066923,-2.7375145,-3.0650797,-0.4869622
-0.44789156,1.1084242,-1.6434109,-0.50998867,0.5793242,1.7782036,0.43781838,-1.9404755,-3.3727484,0.9189964,-4.1377845,-5.3211613,-3.5624356,-1.0742997,-1.6678432,0.551901,-4.7813296,-1.3172445,-0.8569436,-2.3328931
-0.6378543,-0.19682989,-0.061556444,1.4245735,-0.30105725,-0.9061649,-0.44098577,-1.2265879,-3.09881,2.0310268,-1.0101218,-0.21304585,4.329727,-0.35498148,0.8321905,1.594904,-5.4005594,3.689976,-1.375024,1.7249209
-2.759199,-0.6024709,-2.1352851,2.9251506,7.5662665,-2.115412,-1.4007759,-2.0585473,-6.916071,3.5945928,-3.1677468,-6.5409055,-0.38341513,7.2563944,-0.57965845,2.0058978,-7.9783826,-2.8859487,-4.841072,-0.28009632
-1.6364565,-0.46591523,0.39175835,0.67614645,2.9851565,1.1287341,-1.1036973,-0.93149805,-1.8072491,-2.0146275,-3.3018942,-2.3132663,-0.6748943,-2.7371628,-0.97435606,-2.4383745,-6.384915,-0.24675328,-2.653301,-1.7507991
-0.8430747,0.25446403,1.6087579,0.2170813,4.6998196,-0.9725123,2.3908677,-0.48246363,-2.0528052,-0.46241832,-0.43742225,-1.5588671,-2.2563455,1.3901954,2.0874202,-0.6189459,-0.35870653,-0.7134086,0.87507576,-1.1807561
-0.3067598,0.17078865,2.0701966,0.84854805,-0.42488503,-2.1971288,-1.6520072,0.08662071,-0.98997843,4.7557907,0.09575728,-0.3619281,-1.6230389,1.8062538,2.4458437,1.9234998,-2.7538338,-2.7072866,0.054202147,-2.4236522
-0.20050369,-1.4100496,0.05641082,3.6379943,1.1578531,-0.20170625,-1.5128053,-1.3398095,-3.8102775,-6.0616655,-9.243423,-6.8964987,-3.5877376,-4.560941,-12.517976,-5.0526896,-10.885443,-3.8996382,-11.993865,-7.6116
0.39745224,-0.19989341,-0.33911568,0.5034415,-2.1427312,1.0804759,-0.027394824,-1.2926008,-1.0002021,-1.5953536,-1.81984,-2.311777,-0.018028991,-2.4405107,-4.98434,-1.529261,-6.131824,-2.5308082,6.233323,-8.399807
-1.1103611,0.7048398,0.6150148,1.7012116,1.028909,0.6222884,0.12863001,0.023997886,-2.3529754,1.7705114,5.546994,-0.19327198,0.019501857,2.7006764,-0.35429823,1.1876787,-3.00447,-2.1808665,9.464259,-1.5617114
-0.69393426,-0.5927361,5.303483,-0.016865842,4.5912786,-5.3748093,2.8306413,2.016034,-2.5739856,-0.5635016,5.1801186,3.9563568,-3.4440846,-6.374746,-3.3972971,-10.607077,-4.0239253,-3.9574974,-0.46513712,-3.5590768
-1.8262275,0.51067495,1.2760978,1.9652857,-0.2466434,2.2822728,-0.558514,-2.103933,-0.83659345,-0.06681585,-2.0352,-1.1702586,2.8268812,-1.2622604,-0.5289922,-3.4904382,-10.3596945,-2.5030282,-8.891386,-5.381774
-0.18142131,-1.7497479,2.7924335,-1.3585596,3.6267166,-1.0623516,-0.16112427,0.006524774,-0.55156815,-0.08044282,0.842253,-12.554379,3.826553,-3.5525548,-3.7376084,-0.64919573,2.3410816,-3.8131351,1.4965429,-0.6415293
-0.85962874,-0.78178984,2.1236854,-1.2738631,-2.3061597,-1.8431387,2.8606534,-2.3962693,-4.3028913,-0.5692093,-2.2119122,-2.5985808,-0.60327935,0.4510255,6.906778,-2.5607476,-2.1384811,1.1788088,1.0122778,-5.8297663
0.3654702,-0.47018608,0.03724153,1.4018259,1.2800279,0.15792064,0.17562185,0.012507459,-2.4967308,2.2708693,1.23891,1.7876884,-0.85770315,1.9125718,2.1470206,2.6843247,-0.11398214,-0.8772506,1.3369464,0.15438142
-0.03341202,0.11311245,-0.02342236,-1.6528594,-3.123647,-3.543787,3.760191,2.1936002,-2.5716546,-1.5434864,-4.23133,-2.6578968,3.7199364,-0.34544104,6.300426,-3.8783128,-2.463842,-1.7033491,-1.4771619,-4.481711
-1.1783917,1.075809,-3.840511,3.4343727,-4.292248,-4.2149925,0.97095144,2.3916059,-1.6207584,0.070463,-3.9405832,-0.5662128,6.935101,-3.7235043,-3.9252033,-7.0851808,-10.255922,-6.430467,-11.584583,-8.402839
-2.6306095,1.6141006,-0.7708113,0.7496734,0.13855085,0.9073568,-2.0608697,0.271574,-3.1760235,-2.2286067,-2.4662325,-6.962543,-1.8931367,-2.8389654,-8.203346,-5.0588703,-7.0172296,2.5584967,-6.20228,-10.431694
-0.71894926,0.32715076,1.5369631,0.25854284,1.8774438,-3.2050512,-0.28033838,0.04043035,-0.79468083,0.7596438,-0.15971242,-1.0130125,1.6607524,-1.7619082,-1.1383449,-1.1572161,-4.7067122,-0.88979894,-1.6242701,-3.48929
-2.8666675,2.3857548,1.3789513,-1.5562876,-0.9902601,0.8307623,-0.8279862,-4.5149927,-6.9093523,-5.421405,-8.956278,-4.852738,-3.4060466,-7.6592426,-3.6004007,-4.9483833,-2.366511,-5.7900515,-16.10716,-12.649899
-1.9232941,-0.49107572,-0.8179557,1.128959,0.18710813,-0.8223087,1.7798856,-0.062890194,1.6225535,-1.5104797,-2.5725935,-4.0765243,5.042192,-2.2221694,-3.600393,2.1826422,-6.968286,-1.2313983,-1.9336395,-4.638924
-0.5828113,0.91810507,1.361088,-0.36802393,-4.1324763,-8.060183,-3.2370894,-1.3867229,-8.413274,2.9557993,-1.2570431,2.48193,-0.94165164,-1.751493,-0.850758,4.641808,0.17027736,1.1165477,-0.3840191,-0.21703997
-0.8376913,-0.35632044,1.9838082,1.0895542,-4.391549,7.459796,-3.582323,-3.1395013,-1.924273,1.4050909,-1.7929518,1.2411735,-1.7220843,-2.199179,-4.31657,-1.6435491,-4.7970023,-4.80558,-13.557453,-5.388254
-0.7187645,1.2883903,1.0730677,0.3031987,-5.2944355,-3.1226223,-4.860589,-1.7199373,-3.9365277,4.2707057,-0.16917735,-2.0848668,-7.6599603,0.43806127,-2.2207782,0.87311673,-0.65072,-2.4367235,5.6246753,8.310092
-0.10465242,0.30211282,0.70382303,1.0008843,0.2083254,-0.35916343,0.55860287,-0.8464091,0.42884666,2.2359083,-1.6008028,1.2696177,-0.15085822,-0.88336605,-1.2236142,1.8128707,-0.33874848,-1.1589751,1.7376828,-2.2639987
-0.24601848,0.74011064,1.199993,2.651411,3.876806,0.07235471,0.14698628,0.6092026,-0.9759638,1.9610581,0.70272166,-2.198184,0.7211811,-0.037935317,-1.1882787,-0.58348155,-6.981255,-3.019667,-2.9480271,-2.5997186
3.222053,0.3624818,3.403166,0.4815693,-2.9371743,5.276307,-4.4938345,-3.0739148,-2.148692,-4.475775,-3.031572,-3.7856977,-3.2083802,-7.097574,-1.3983278,1.3930686,-4.4339023,-6.4414325,-6.3785667,1.4479448
0.40997007,1.1050913,0.53585786,-3.4618618,-3.4941983,-3.3119164,2.7881026,2.0804086,-2.383077,1.897016,-2.5551586,-2.3516805,-4.1373973,-3.8560464,2.296691,1.1257228,-1.0107373,-1.2043233,-1.2756214,-3.504862
-2.349985,-0.3965084,0.48546726,1.5360445,-0.4401337,-4.7312684,7.0671897,0.15897639,-0.35467276,-2.0366282,-3.1389654,-8.137318,1.1436466,-9.838726,-3.1385224,-6.369378,-18.79298,0.9345013,-2.276008,-9.16713
-1.1620893,-0.24366346,1.5267051,1.0369757,0.058430217,-2.962346,-1.6598972,-1.0550917,-5.1332774,0.2986045,-3.156766,-6.9077616,0.90390396,-2.0358365,7.4326653,8.725526,7.017766,-3.3696384,-3.5136683,-0.7998574
-1.2605283,-0.38101518,0.85621244,-0.6198245,1.1008819,-0.029116496,-2.1362507,-1.9685767,3.340771,2.839291,-1.0836416,0.542903,4.0886974,-3.0064144,-2.0066419,0.3673931,-2.2312799,6.3866706,-1.9700893,-6.1437273
-0.49505475,1.0356072,0.8312784,2.0864785,-0.16670619,-3.5830898,-1.0159495,0.47658685,-1.9803294,4.920963,0.57453454,4.304835,4.032883,0.39860645,-0.2642012,4.3194785,-2.7980456,-0.81353384,-0.18689431,0.34613943
1.1298114,-1.3120085,-2.5979388,-1.5617907,3.50245,-2.8862855,0.12096081,-0.97780603,-5.4567623,0.052366633,-6.8368096,-7.9336605,-4.582652,-4.33108,-5.0386324,-4.815307,-8.202046,5.4004173,1.8913292,-2.838832
0.09230229,-0.59246457,-0.45127836,-1.3839352,2.3760304,-0.5438368,0.4954837,1.1326029,0.80419874,0.71473485,-0.88816196,3.180339,3.3885772,4.866872,-0.056876436,-3.4699545,-0.3287407,0.09597781,-1.5061291,5.9459066
-2.2932992,-0.2864039,1.2384562,0.34541744,-2.1442037,-5.0561786,0.69146854,-2.4383175,7.7292733,-1.4131814,-6.418741,9.985245,-1.1258798,-1.8394125,3.6003003,3.1006758,-1.0485759,-3.7463994,6.7321715,-6.717529
0.43296102,0.060756158,0.53708786,-0.86624527,-1.9536718,2.2683654,1.6120815,0.010883431,-2.026772,0.8662409,-1.7824255,-0.7750356,-2.7076406,-1.2126038,-1.3857548,4.020845,-3.6906905,0.1525977,0.28479245,-0.42087728
-0.33244264,1.0898241,0.26056513,1.0314969,-1.0423892,-2.5534136,-3.129399,-0.9114539,-3.9823236,5.7952495,2.7648907,3.1587799,-2.2181087,-0.10434318,1.5271817,0.9418386,-0.96644884,-1.5454018,0.22761813,-1.5939566