1.2550187,-0.62599105,0.55396867,-0.5572826,-1.8219478,0.9191754,-1.8844877,0.8363519,-3.3797176,-3.4752738,1.3019537,-0.6089704,-2.4982836,-2.7507997,-4.0038757,-3.6259005,-6.51505,-2.488006,-8.64097,3.7850373
1.5892513,0.8737589,-2.3808186,-9.75603,-6.363223,-3.3945794,-3.0221753,4.679196,5.042995,-4.2177196,0.5565072,-10.60642,-2.6291425,3.340675,2.0023365,-7.0397396,-5.147637,-8.58405,-5.3393483,-3.4522228
-3.3556094,-2.423708,-0.74871683,-0.4055977,0.7021161,1.7506734,0.50708014,-1.7381262,-2.9502213,-2.6322567,-1.6327807,-5.029775,-1.8818944,-4.3655415,-6.2473326,-6.166812,-5.4484663,-2.9410284,-5.931589,-7.5931125
-0.26050314,0.4348109,-0.26870683,-2.7413428,-1.4047004,-9.955643,5.752013,-1.1271787,2.4001298,-3.1047661,-0.6377982,9.461471,-2.5327313,1.5535781,-5.0350986,-5.1775737,7.7769794,-0.7693785,-1.1058751,0.4084196
-1.0573227,-0.8978689,-3.7396414,4.459753,-1.9316237,-2.8088152,3.9161332,-0.3985823,2.2722838,-0.2955579,-1.9003994,2.6096907,-0.9609716,4.654303,-3.943476,-1.9401461,8.647153,1.599747,1.1317418,-0.4380565
0.06899489,-0.91053575,2.3191786,1.1026399,1.1857102,-0.1263408,0.19436613,-0.9171045,-0.2234281,1.5764922,-3.9111567,-8.858889,-1.1350567,-2.0386093,1.3272046,-0.5082175,-9.387399,-2.4672554,-3.82288,-5.8891797
-1.7183601,-0.33774093,1.3628702,0.11646188,-0.30607596,5.1945496,-1.7112808,-0.6518451,-2.072682,-2.673966,-2.0881088,0.22289796,-1.6169152,-0.08878528,-1.7539744,-4.4810953,-14.634908,-3.1285207,-6.2723184,-9.395694
-1.2432142,0.16467756,-0.252872,-0.2873006,0.62486434,-0.25952876,0.88824475,-0.8667098,6.4592657,3.297552,-0.43982407,-1.4456019,-1.0959237,-1.1324317,-2.2546403,-1.6259156,-3.9077797,2.693647,-3.6232703,-1.7697753
-0.21580924,1.3025932,1.9347565,0.7391215,-1.2232888,-2.2895424,0.29246435,-0.5966847,-1.9443887,2.6248503,2.9984872,2.7543855,1.0675998,1.3094561,5.792064,2.18886,0.9313717,-0.38666943,1.0230386,1.4642652
0.22720829,-3.7057781,-8.862296,-15.067858,-11.618425,-13.973284,-11.61332,-6.376792,-4.143333,-8.129059,-7.542238,-0.6810407,-5.7621994,0.8261257,-5.761015,3.6553636,-0.83990675,1.5508951,-5.4103694,-0.68529445
0.22621866,0.67079586,2.2368374,1.327614,0.42455935,-3.911416,0.33119234,-0.38785562,-1.3755391,0.5669864,0.10066323,5.048508,-2.1452284,-0.41319805,-2.0092216,2.796299,-1.261603,-0.44381452,1.4288951,-1.6351137
-1.6104062,-5.0783324,0.24381104,-2.7693229,-3.9920905,-5.889949,-2.2683744,3.6320431,0.015406962,2.712306,4.1475496,-1.6176841,-0.29692864,0.044270072,-6.9868727,-2.2988737,4.668695,-1.3458039,4.5148497,2.1044436
-1.8764596,0.8168858,-1.0620846,-0.70169604,1.0866832,1.9189624,-0.34975135,0.24102473,-1.1021041,-6.1892624,-3.1131084,-7.402082,-1.3728968,-6.5731034,-3.3017206,-6.9943624,-5.095655,0.37220427,-9.110596,-9.252467
-0.25336057,-0.10568336,-2.2498975,-2.2020204,-3.1318321,-3.8199077,2.8902237,-3.0321028,-5.9295006,3.4436007,6.8441396,-4.354863,7.5550346,-3.510425,2.1895373,5.0211086,-4.0698433,-2.7465389,-3.0435932,-0.5019058
-0.44782192,1.1087174,-1.6430786,-0.51098466,0.57959604,1.7754538,0.44275656,-1.9386265,-3.3699698,0.91721946,-4.1391983,-5.320922,-3.5204368,-1.046778,-1.6672949,0.5578416,-4.7799153,-1.3176334,-0.85432166,-2.3362937
-0.6377296,-0.19650263,-0.059144113,1.4776615,-0.29294074,-0.92468274,0.19982633,-1.2262203,-3.0990772,2.0313907,-1.0109166,-0.21474503,3.4556248,-0.34565413,0.8314499,1.6010101,-5.4001164,3.6732328,-1.3533976,1.7247986
-2.7497547,-0.55930895,-2.0828104,2.9889412,7.5250497,-2.3988316,-1.3075747,-2.0376492,-6.920423,3.608404,-3.1592684,-6.54507,-0.6270917,7.212099,-0.5862946,2.0127983,-7.9722533,-2.884939,-4.835656,-0.2928679
-1.6364167,-0.4656786,0.39180928,0.6751852,2.9853895,1.1286798,-1.1022707,-0.9313201,-1.8105528,-2.0012946,-3.305841,-2.314658,-0.6238536,-2.730414,-0.9737901,-2.4341667,-6.3842463,-0.24725184,-2.6499724,-1.7502334
-0.84298116,0.25438875,1.6093389,0.21707547,4.6878643,-0.9930961,2.405277,-0.4823309,-2.0562224,-0.46106848,-0.43989488,-1.5547919,-2.2495759,1.3968387,2.0760875,-0.6056023,-0.35685295,-0.713485,0.87719375,-1.1818694
-0.30665997,0.1709146,2.1078947,0.8480276,-0.4238206,-2.2005675,-1.6240789,0.08618825,-1.002126,4.743686,0.10160126,0.091718666,-1.6143397,1.8092963,2.442095,1.9298137,-3.163546,-2.7074115,0.055862293,-2.4190443
-0.20398852,-1.3606452,0.07085734,3.5893533,1.1695031,-0.22580943,-1.7007105,-1.3221548,-3.8554409,-5.9858904,-9.247441,-6.9162974,-2.163074,-4.51071,-12.51389,-5.0449166,-10.8830385,-3.9016163,-11.89615,-7.5998163
0.39289635,-0.1952467,-0.33625543,0.39449513,-2.121068,1.0446978,0.06551412,-1.2866174,-0.9962212,-1.5898712,-1.8240412,-2.314323,-0.070094794,-2.4324462,-4.9830713,-1.5171974,-6.1275496,-2.52917,6.8820662,-8.389918
-1.1102078,0.7068573,0.6130011,1.7006997,1.0289897,0.6194541,0.141818,0.025445139,-2.353957,1.7856046,5.432161,-0.19074754,0.038102567,2.7042098,-0.35389474,1.190891,-2.9942608,-2.1822455,9.43881,-1.557227
-0.68925333,-0.39023563,4.8911037,-0.35561204,4.5393014,-5.3081193,2.7079182,2.3519003,-2.5565739,-0.52117187,5.0593085,3.779991,-3.2923589,-6.355563,-3.3965216,-10.5918455,-3.9051955,-3.9456074,-0.40658945,-3.552174
-1.8255106,0.51071894,1.277004,1.9641231,-0.24591008,2.248683,-0.5447596,-2.1001139,-0.8367035,-0.06712316,-2.0370708,-1.1711043,2.8358042,-1.2548091,-0.5289252,-3.4872236,-10.358528,-2.5079176,-8.8749895,-5.3819304
-0.17810628,-1.715197,3.260551,-1.3733761,3.6340044,-2.2575893,-0.094996326,0.0006976009,-0.5538188,-0.054747816,0.7637074,-6.487988,3.8274286,-3.540827,-3.7390647,-0.63797694,1.3830802,-3.818207,1.5018998,-0.9083486
-0.85912186,-0.7729868,2.1122565,-1.3092297,-2.2985823,-1.8768655,0.47307807,-2.3920615,-4.3022475,-0.5603777,-2.213576,-2.579514,2.056068,0.4419685,6.8208942,-2.544951,-2.1379292,1.1420667,1.2568059,-5.8220286
0.36547795,-0.4696553,0.037923563,1.3933358,1.2842377,0.15020084,0.19476251,0.012678399,-2.4974458,2.2743845,1.236191,1.786997,-0.7786668,1.9139432,2.1470609,2.6845121,-0.11419113,-0.8772392,1.3384937,0.15707661
-0.033013046,0.122774765,-0.034959186,-1.6477237,-3.0961719,-3.614625,3.6417465,2.441625,-2.5764148,-1.5266604,-4.1968102,-2.6500003,3.1857896,-0.42146474,6.2392416,-3.8415112,-2.4501305,-1.7024276,-1.37131,-4.477771
-1.148579,1.5181509,-3.7043016,2.7882857,-4.019021,-4.526378,0.94043714,2.7581306,-1.6232378,0.11924882,-3.8606691,-0.7960421,6.5181975,-3.5861723,-3.939203,-7.048937,-10.141636,-6.42952,-11.576645,-8.375831
-2.6264555,1.6703192,-0.77148175,0.6971143,0.13889144,0.8892723,-2.409901,0.5411759,-3.181829,-2.2225795,-2.3488903,-6.962354,-1.8000253,-2.7781746,-8.208657,-5.01945,-6.9891443,2.5273335,-6.23105,-10.414525
-0.71871054,0.328545,1.535902,0.2533194,1.8714304,-3.2196078,-0.26605064,0.041791137,-0.8458747,0.7618594,-0.15860286,-0.8322448,1.667465,-1.7329326,-1.1307284,-1.1536983,-4.7064896,-0.8897927,-1.6217117,-3.4871638
-2.8549175,2.4983244,1.3789998,-1.5987059,-0.99048555,0.68682945,-0.7923763,-4.469301,-6.884693,-5.393802,-8.985484,-2.1461139,-3.3583834,-7.5812497,-3.5905223,-4.9117785,-3.3170598,-5.7906036,-16.082026,-12.646134
-1.9221643,-0.48872033,-0.8177836,1.1261859,0.18843935,-0.82433844,0.36267,-0.06263522,1.623626,-1.5019386,-2.5667675,-4.0764008,6.8628,-2.2171133,-3.5993059,2.1921268,-6.96594,-1.2318864,-1.9296564,-4.6386104
-0.58276224,0.91832125,1.3612937,-0.36719564,-4.132206,-8.103803,-3.2374403,-1.3866961,-8.413657,2.955948,-1.2578957,2.4800115,-0.9416893,-1.751461,-0.8507195,4.641451,0.17092298,1.1165483,-0.3839337,-0.2169708
-0.8382234,-0.22241847,2.027643,1.0904145,-4.3700976,6.215421,-3.5320747,-3.1264944,-1.9617343,1.3741958,-1.7895849,3.5495887,-1.6814573,-2.1932783,-4.311642,-1.6361884,-5.782354,-4.8082705,-13.544016,-5.3831778
-0.7018015,1.3838147,0.9049636,0.10656429,-5.240214,-3.45745,-4.786126,-1.6889749,-3.9027655,4.232637,-0.16049296,-2.0442836,-7.527823,0.4550583,-2.2288275,0.8919352,-0.6444263,-2.4433784,5.606767,8.213585
-0.104587734,0.30225337,0.7027233,0.99643075,0.20927596,-0.36083397,0.5804998,-0.8464258,0.42861685,2.2321956,-1.6012102,1.2700087,-0.1464268,-0.8809639,-1.2225173,1.8131353,-0.33874896,-1.1591853,1.7379678,-2.2640486
-0.24105452,0.7531833,1.2086617,2.4378254,4.008479,0.04089971,0.19567947,0.6262845,-0.91786665,2.2655218,0.9144921,-2.1675026,1.0830483,0.030266615,-1.1022191,-0.21499114,-6.978959,-3.0144687,-2.7030535,-2.0350907
3.2062762,0.4197552,3.402437,0.39041498,-2.9106917,4.9002547,-4.374597,-3.0316076,-2.1112392,-4.4599295,-3.0301785,-3.7873387,-3.1122663,-7.0772243,-1.4068707,1.3967768,-4.4189873,-6.434043,-6.3757234,1.446792
0.39371806,1.1212145,0.5528592,-3.4341898,-3.4882667,-3.3324547,2.2642708,2.5891337,-2.384552,1.9286143,-2.4493055,-2.3381848,-4.090345,-3.8443253,2.2397676,1.1446335,-0.92853826,-1.2000657,-1.1984336,-3.442378
-2.3449898,-0.27753305,0.36107033,1.4965442,-0.43727952,-4.7810693,7.00287,0.62545365,-0.49988168,-2.0201068,-3.1368124,-8.102976,0.7716769,-9.752499,-3.1316466,-6.3674254,-18.75577,0.9230973,-2.2483633,-9.165436
-1.1614525,-0.24252859,1.5267863,1.036101,0.05948477,-3.0308897,-1.8372543,-1.0252705,-5.1303954,0.30373985,-3.1563294,-6.883552,0.93238693,-2.0228448,7.344158,8.727849,7.013057,-3.3742077,-3.5175538,-0.8056324
-1.2599297,-0.3775791,0.857729,-0.6196134,1.1014436,-0.13767926,-2.1297467,-1.96726,3.3172972,2.8386059,-1.0848429,0.54810965,4.047702,-2.9982586,-1.9995881,0.3712905,-2.2258015,6.350301,-1.9480593,-6.1448097
-0.49497107,1.0356518,0.84188527,1.7801108,-0.16206259,-3.6003327,-0.95724005,0.47735706,-1.9769944,4.9285607,0.57639927,3.858338,4.340583,0.4200761,-0.2637277,4.3204203,-2.7502954,-0.813603,0.2774006,0.36828366
1.1174008,-1.2989833,-2.5635283,-1.5991864,3.399758,-3.0079982,0.16676213,-0.97331566,-5.4597993,0.052958768,-6.8096437,-7.925822,-4.5090356,-4.3311605,-5.057028,-4.7998395,-8.18045,5.294091,1.9028709,-2.7592542
0.091181085,-0.59154445,-0.44103572,-1.3881685,2.3698716,-0.56329584,0.5278596,1.1327922,0.7908495,0.71749985,-0.87541395,3.1436255,3.4122465,4.8842278,-0.04991646,-3.4474425,-0.29123402,0.09615525,-1.5035578,5.876192
-2.2888021,-0.18196344,1.1400824,0.32816473,-2.1294968,-5.109637,0.8315585,-2.3989773,7.6139827,-1.4147081,-6.42,9.904416,-1.0824643,-1.7686929,3.5754712,3.1073546,-0.9390288,-3.7451775,6.736859,-6.6944327
0.43296355,0.062042277,0.54322636,-0.8679192,-1.952013,2.185247,1.5525539,0.011014289,-2.028605,0.8668675,-1.7858574,-0.774284,-2.689921,-1.2112048,-1.3857741,4.0204263,-3.6914766,0.15232407,1.3790946,-0.4254249
-0.33232188,1.0908353,0.2639989,0.89603615,-1.0362093,-2.682495,-3.0887284,-0.91037095,-3.9777565,5.7825336,2.76544,3.1427972,-1.8813504,-0.10004183,1.5182328,0.94987935,-0.9541105,-1.545481,0.23804654,-1.5934036