4.5043263,-2.8240626,-0.006646389,-4.781885,-4.5896463,1.8788214,0.74528176,0.5202396,-2.4882436,-15.462024,-0.30089033,-2.9626822,-3.2926645,-10.154049,-8.9543495,-4.0849714,-5.4107313,-11.545092,-13.167308,7.659728
3.753517,1.7046502,-4.8295517,-12.908775,-11.516334,-3.3091424,-3.812214,7.953884,6.7992306,-7.8633695,0.8610667,-13.224714,-7.334431,5.424957,3.2352645,-9.580595,-8.4511175,-10.983408,-6.025117,-10.22945
-3.3189945,-2.2469883,-0.77233094,-0.23240517,0.67868996,1.5664599,0.4319216,-1.9248494,-1.8289139,-3.3917823,-0.8922021,-10.835003,-3.5120933,-2.9587147,-9.89657,-3.8942895,-9.197343,-4.923036,-10.461248,-11.654613
-6.393883,-0.46124527,-3.2513068,-7.5467734,-0.7320139,-5.839527,4.3230352,-8.081658,-2.913895,-8.543225,-2.9814715,8.391859,-6.6038256,1.7037745,-8.750431,-0.82260585,11.69584,-1.7092466,-5.7518444,0.32526445
-4.186438,-0.29409453,-2.960918,7.1466475,-5.1177244,-1.2769432,7.1934533,-2.2004216,3.969916,-3.630323,-5.0093427,5.1036043,-2.903846,7.9757905,-9.119141,-4.448875,10.1854105,-1.1176075,-1.9529611,-6.14983
0.78848875,-2.2223248,4.159166,1.8747599,-0.71576303,-2.3697073,-0.31403524,-2.4111395,-0.83280414,-2.1480725,-4.4789705,-10.86855,-5.4568863,-4.7542133,-1.458912,-1.0407615,-3.478167,-1.5611259,-8.159705,-9.758497
-4.402829,-0.54925305,-1.0408452,-1.5300142,-0.29144505,11.142519,-1.6473365,0.64980006,-8.0212555,-7.813559,-4.026555,-1.8066933,-1.018483,-3.7557163,-3.2077143,-8.793286,-4.432877,-6.478485,-7.991407,-11.683711
-1.4142308,0.7613586,-0.75725687,-0.748225,0.55463785,-0.61945605,-0.7847033,0.24795118,11.730145,7.3829384,-4.612675,-8.000333,-3.2905912,-5.078181,-9.857448,-1.5796891,-3.2263253,4.2012844,-1.5665082,-10.092988
-0.2999778,0.74017555,1.130824,2.5543795,-2.6280637,-3.4452062,3.6472929,-1.5300391,-2.5256805,5.2486086,3.4613178,0.5932287,-2.4240544,-2.6961734,8.845175,2.7833107,3.9542193,-2.1416953,-4.13975,3.650978
-0.23237842,-4.4332666,-12.172307,-16.307121,-12.479547,-20.761772,-10.45575,-10.373708,-7.655988,-11.736628,-12.404469,2.2908888,-5.978339,1.8955088,-10.778886,5.3923097,-1.8488777,5.04993,-6.630128,-0.29787973
-0.61024964,-0.80776846,4.4767776,1.9808462,-0.7248924,-11.130696,-1.4029229,-4.351147,1.7021534,-3.4697092,-4.9101734,2.5924027,-4.5648856,-6.4366007,-1.1397859,4.5073943,4.0281377,5.6126733,-7.106041,2.7363114
-1.2503761,-8.244033,0.7481593,-10.180352,-9.516064,-9.539279,-3.0437493,5.4471574,-0.3723943,3.38502,4.735639,-6.207267,1.0961823,2.451979,-8.710239,-8.246614,6.463573,1.1833704,8.380237,0.47614065
-1.9926196,0.040725254,-2.7122545,-0.17342012,2.215647,1.905116,-1.6609174,-1.0280802,-1.8407786,-2.7493334,-5.4629083,-3.2567048,-3.4911017,-6.485773,-2.8542972,-11.199074,-9.6823,1.52172,-3.2813346,-14.275176
-1.9933546,0.5920522,-2.8805933,-7.1632247,-1.8381027,0.21297494,4.024272,-7.8011293,-6.4479375,6.6213756,11.167808,-11.0317335,8.128665,-2.1954746,2.4281957,5.301624,-4.4797764,-0.9557201,-6.6406493,0.23288794
-0.5558555,0.729564,-1.6843337,1.222501,0.3025113,0.13018358,-0.779635,-2.3003368,-8.808142,0.5033849,-9.529412,-10.802939,-9.842466,-2.2657,-3.433325,-6.6788483,-10.177414,-2.495457,0.6240712,-3.2314837
-0.64935344,0.4346976,1.839878,2.8096588,-2.9991636,-0.773663,4.9302974,-2.0732281,-3.6515284,1.8206754,-4.7554946,-1.5965784,0.9839013,-0.6084269,-3.269428,0.14212139,-10.75071,8.303286,-5.4032025,2.5473926
-4.675631,-0.15699498,-4.0348926,3.7033284,9.716903,-1.3880275,-2.8578973,-5.5679536,-9.041885,5.3281174,-7.7388716,-10.107883,-0.94780755,9.0043125,-3.8771977,4.455345,-12.379028,-7.637889,-5.6859207,0.03162338
-1.7062604,-0.4298172,0.2255243,2.0396228,1.6842157,0.30673346,-0.4503342,-1.369194,-2.0721464,-6.069045,-5.176895,-11.206278,-9.3375,-4.2600985,0.7423567,-2.5644047,-12.405875,-2.7858624,-14.468596,-9.966518
-0.8834206,0.3144371,3.7163255,0.7455779,11.683781,-7.589485,-1.7497911,-1.0225815,-0.88729215,-6.771912,-5.7828274,-10.489294,-5.7252665,4.369775,-4.0159664,-5.8530436,-3.643685,-0.9368487,4.2436423,-5.84045
-0.7560857,-0.42822993,1.8341756,1.6101748,-0.8469907,1.8209168,-3.2224913,-0.18705258,-6.6877813,9.6444845,-2.0279496,-3.4527202,-5.969858,-0.6759286,-0.2537771,-0.47836354,-3.1786377,-2.9794028,0.032373734,-8.459084
0.96316826,-2.8097305,-0.015072666,5.661109,0.82252914,-2.4598951,-3.2109523,-2.6996224,-4.6902595,-7.7228684,-14.260727,-7.997913,-4.5602794,-6.767023,-14.142339,-6.342857,-12.399115,-7.804859,-5.437033,-9.638361
2.31598,-2.108334,-2.283768,0.3249396,-1.8419966,2.1191819,-0.6637083,-4.5620975,-6.0902424,-4.1008067,-3.0499616,-3.8602157,-3.1783829,-0.2543785,-5.419293,-8.9091425,-4.189592,-3.9762614,1.4619707,-4.585612
-1.2486708,0.94980025,0.6986984,-1.4753188,0.7571053,0.14409147,4.399019,-0.7383453,-5.5001044,0.63066256,13.67637,-5.852876,-3.3374643,4.813958,-0.29914314,-1.4049375,-3.7850885,-2.35177,11.08717,-1.3610274
-3.4716473,-2.913645,5.6447015,-1.1228322,3.771146,-6.579219,2.7381592,3.951281,-0.80667526,-5.2209444,8.192896,8.063624,-9.011943,-6.129844,-4.262306,-8.469582,-13.392198,-9.30416,-1.8275675,0.87888443
-1.9050144,2.2377489,1.3399034,-1.2337259,0.06891912,0.24459016,-1.369105,-3.1204565,-4.003115,-2.2740867,-1.6981804,-4.5238323,0.47841245,-1.3001164,-6.1923337,-3.9777977,-11.871555,-6.1804523,-9.994016,-7.7861867
-1.336939,-2.7826765,3.4370017,-3.870659,4.4526777,-1.2045517,0.21318755,-3.8881636,-0.5782972,-2.7524633,-4.862488,-9.115828,5.5579896,-3.6776738,-4.9198833,-6.896199,4.997012,-3.3863485,0.50861907,-3.5918279
-1.4540678,-1.2196835,2.5517108,-3.698628,-3.9523644,-1.9248857,-0.17709859,-5.124245,-4.8056045,-2.9771917,-5.9983306,-8.591726,1.4261547,2.0126402,7.788499,-4.231153,-6.3723636,0.85212916,5.2066283,-10.770671
0.37098593,-0.034909543,-1.089059,2.8958824,1.5860546,-0.9549464,0.16959493,-0.056795355,-2.4511971,0.97966975,-2.026573,1.6490446,-8.46627,-0.9661116,2.8605967,-0.32042143,-1.925377,-0.979001,-1.904721,3.732786
-0.6187919,-0.37316713,-0.7909214,-2.666456,-6.7573743,-3.2646928,4.1390076,4.462373,-2.4319532,-3.2643259,-11.0889225,-6.491786,3.1334934,1.907094,7.6565948,-8.292663,-8.510157,-2.1000223,-7.129054,-3.2090065
-0.7790328,2.413102,-3.551123,3.344149,-5.806538,-8.703582,1.9702342,4.3100543,-2.7718117,-1.8061622,-14.314815,-0.40651944,8.187475,-5.4419518,-9.417355,-12.31825,-18.34985,-5.5505595,-17.310163,-16.00595
-2.1326928,1.9113088,-2.4053612,1.5389628,-0.87843263,-0.8736479,-5.826953,3.357968,-4.0006695,-4.5783997,-8.771179,-0.60508615,-1.8811702,-7.7117553,-11.166433,-4.529128,-8.058631,4.8067727,-0.43381175,-18.811277
-0.8034644,0.6994696,1.5409789,-0.9136203,2.4155993,-6.7871275,-0.8225489,0.24379213,-3.144542,0.8083512,-4.1239347,-3.4644465,-1.5094575,-4.949715,0.616944,-2.2685797,-8.34249,-3.8413968,-6.509714,-6.298093
-3.082305,3.8625913,2.611229,-2.1277287,-1.4209689,1.0744348,-5.157595,-5.8973155,-10.753951,-11.324781,-17.275484,-4.623852,-4.1561546,-9.136374,-7.6667657,-10.6019535,0.17180072,-7.8550835,-17.873726,-19.244997
-2.0185163,0.7070188,-0.817375,0.5780508,-0.7380012,-1.2257625,0.6746391,-3.2032104,-3.4571579,-1.3423151,-9.746927,-10.801329,5.3810506,-1.1711345,-8.521123,-0.32377556,-9.303653,-6.2382116,1.998831,-7.198444
-0.21324305,0.5239761,0.9543262,1.3653615,-6.119172,-10.223488,-4.17509,-1.3285396,-5.9261107,3.4772797,-2.0591912,1.4856994,0.67871326,0.21532118,-3.1128328,3.935673,-0.28774974,-2.603649,-5.438051,-0.9946991
-2.1177945,-0.24761604,2.9490695,0.3090366,-5.626672,9.398211,-9.875043,-7.117621,-5.165747,1.5816703,-4.8066235,2.6488717,-0.22448751,-1.3158892,-4.04576,-7.1495175,-2.4797928,-6.0974345,-22.68556,-8.38854
-2.0905895,3.2227566,-0.15885921,-0.26222494,-4.6423573,-4.363331,-5.222432,-3.0962844,-8.043408,7.234103,-8.824336,-3.3681834,-6.9232106,-2.0896468,-5.8614874,-1.1949406,-0.74420184,-4.2622623,4.4880123,10.836352
0.40481484,1.4007528,2.5133421,0.256931,-2.9549184,-3.5531387,4.20474,-1.959464,-2.431049,3.4757075,-1.2930466,-0.74844307,-1.643027,-5.445811,-5.5991325,2.069929,-0.5313998,-5.7238064,-4.2039366,-3.5758483
-0.34493196,1.1608939,0.46554914,2.9352775,6.2540174,-1.5705702,-2.69299,0.2244539,-2.5431151,2.7645898,-0.15958205,-6.2393727,0.9840862,-2.2759247,-7.2143474,-5.6828856,-10.743584,-3.479758,-6.991359,-7.732602
3.5265663,-0.88527197,6.995184,-1.0182486,-3.7378173,6.5545373,-5.588362,-4.5516486,-3.4776578,-9.687637,-5.7774434,-8.3780365,-3.5998917,-14.383559,-2.7717028,3.387615,-13.98238,-14.826725,-7.0010614,3.009114
0.5154037,-3.7475674,-1.5114611,-12.173092,-8.172804,-8.867099,4.492952,4.325065,-4.141711,5.8775353,-4.3299365,-14.280916,-5.029683,-10.487105,5.3853774,-2.599066,-2.3971167,-4.3748264,-1.7509049,-10.329804
-4.8223143,-1.0008757,-0.82792443,1.3459667,-1.9146508,-8.671572,8.311354,-0.68658584,0.60870016,-9.496533,-4.653209,-10.487683,0.62875503,-12.3457155,-3.86683,-9.808587,-18.179312,4.867642,-5.644497,-9.196546
-3.6389003,-0.29814014,2.7978022,-1.2047015,-3.504581,-3.8308635,-7.070948,-1.6612277,-6.242412,-3.022756,-7.774073,-8.243908,0.9984181,-5.3128304,7.6092224,11.307279,8.986212,-6.483604,2.016747,-5.4563417
-1.367219,-1.6771692,1.1392282,-0.8598049,2.6078753,-1.5302858,-0.8039137,1.3783002,6.436488,6.0135508,-5.4355006,-6.8542953,1.6123931,-4.5239363,-6.318631,-1.9788457,-7.798611,9.143894,-1.7404729,-9.175094
-0.56323963,1.1561353,-2.9221418,6.20291,-4.1284103,-6.9484434,-1.7420791,-1.4653423,-3.362315,5.3725104,-5.0548587,-1.4025823,4.7676997,-2.6887093,-5.1539373,9.3688965,-3.035508,1.9613415,-3.280201,-7.202207
3.6800716,-3.0149748,-4.077787,-4.3824797,4.121145,-4.0296783,0.035020504,-0.4738676,-9.046159,2.3431535,-10.624964,-12.591242,-4.4797697,-6.3205986,-4.33435,-8.636552,-7.5367613,7.2048283,2.4525812,-4.34247
1.7132419,0.14495632,-5.379008,-6.1190276,4.6645,-2.8015018,3.680769,0.28321362,-5.088874,-5.0722446,-5.7640543,3.6685863,6.0156937,3.864808,-5.1341233,-4.324002,-6.8566713,-4.9287663,-4.4875183,9.124157
-3.4088864,0.26490563,0.17838266,-2.0897007,-3.5788772,-5.3350296,1.9145252,-8.598471,11.876019,-1.443458,-12.444819,11.260214,-3.5581386,1.5855687,5.774316,5.550262,-3.0059388,-2.8279178,11.888436,-7.221583
2.9741771,-0.91242343,1.8320143,-4.6445427,-2.4379804,0.28233817,2.756234,-1.6775767,-0.4825983,-3.838813,-1.6072073,-4.9568996,-2.5832627,5.1096354,-6.9614863,5.4842696,-3.6244578,-0.11693297,-4.5806108,-1.6487948
-0.2916745,2.1233702,-0.43556944,1.410034,-1.5167562,-8.24188,-2.1080718,0.02125855,-5.865258,11.532538,5.688805,1.1110528,-2.5278335,0.59373695,-4.978816,-1.6320152,-0.6457483,-2.5920687,-9.816093,-4.6391573