1.3788939,-0.7958569,0.54532194,-1.5504749,-1.999293,0.8678768,-2.4466476,0.5690771,-3.411073,-5.8312416,1.4666264,-0.6986921,-1.8804129,-0.6070959,-3.8173432,-4.4610896,-5.0717206,-2.5632727,-8.699621,7.4555135
1.2930361,0.8692346,-1.3905164,-10.085745,-9.725322,-3.812158,-4.155704,5.443019,6.5697293,-4.1531286,-0.13733117,-13.275328,-7.44102,4.4136567,1.2220273,-7.8518915,-4.1389346,-8.596959,-5.5607557,-4.308642
-3.3596413,-2.4210877,-0.7500044,-0.40589082,0.7042504,1.7500353,0.50543785,-1.7491372,-1.3414367,-2.7214055,-2.34793,-4.97992,-2.2760446,-4.656651,-6.5759325,-6.166121,-5.576784,-2.9373813,-5.942156,-7.4577336
-1.3846093,1.2113174,-2.17381,0.12757608,-2.6671546,-9.121197,2.7141826,-3.096313,2.0579226,-3.582785,-1.1050042,8.34726,-7.995998,1.9682631,-5.058666,-5.2274714,10.9242525,-0.74337703,-1.1247194,0.96504736
-1.1598201,-0.40928653,-5.6807323,5.3699117,-6.5168834,-1.7931598,3.129095,-0.033907592,2.8821602,-0.23317413,-2.4853477,2.5939348,-0.40571204,8.833807,-4.025642,-6.2812247,8.095944,1.6289018,1.0075983,-0.16583851
-0.046214208,-1.1102357,2.0582767,1.0776826,1.108923,0.35357475,1.2323354,-1.374019,-0.44685957,0.12214258,-3.2796624,-8.631246,-7.3277373,-0.802464,1.5561312,-1.4688784,-5.4906898,-2.4570556,-4.0359573,-3.4922745
-2.1908002,-0.5518764,1.0490162,0.044379253,-0.23890918,7.5973883,-1.5708891,-0.8621722,-2.3073962,-2.8084111,-4.404247,-0.7275717,-2.399268,-2.3413045,-1.7897103,-4.840344,-8.293936,-3.1216614,-6.3062973,-8.10893
-1.2466553,0.17166154,-0.2560567,-0.2853441,0.69206065,-0.2558808,0.72236055,-0.9064688,7.3948107,3.3911922,-0.6545362,-1.9694704,-1.4908018,-1.908911,-2.4199533,-1.639536,-4.3629293,2.7103822,-3.6590447,-0.8446218
-0.21789685,1.3010545,1.9232975,0.61037064,-1.2907166,-2.1401327,0.15994787,-0.60635996,-1.8940175,3.2119966,2.868681,2.7578712,0.19063757,-0.07470973,5.997097,2.154675,0.93486106,-0.3851791,1.0152675,4.452856
-0.1266534,-4.8356094,-10.516911,-18.409681,-11.470855,-16.31077,-11.869273,-6.611866,-4.2574797,-8.452551,-5.811846,-0.21822724,-6.976446,1.0403031,-5.9104767,3.8686297,-0.26351583,1.7021437,-5.4531665,-0.7284246
0.086495906,0.46419692,1.6365458,1.3336017,0.59021294,-4.8321943,0.26239082,-0.7716796,-1.3122494,0.22572695,1.9222974,5.0087624,-3.2392619,-2.186188,-2.0525,2.729388,2.5043428,-0.43329945,1.4240127,0.5742761
-1.762652,-5.934302,-0.5692355,-3.1487186,-6.4228964,-3.4789257,-3.7033994,6.1270432,-0.12706836,4.0227857,3.8134997,-5.185181,-0.717985,1.000431,-7.161515,-4.3124423,5.62663,-1.2861125,4.7149987,1.909483
-1.8893107,0.87838084,-1.1825999,-0.8577372,1.4960512,1.9216464,-0.41076472,-0.012886595,0.37195224,-7.457497,-3.7071474,-7.3930507,-3.9462829,-6.5374265,-3.3637204,-7.0193944,-6.3352337,0.45821106,-9.120581,-7.7020054
-0.3590858,-0.017350381,-3.3169742,-8.373801,-0.91107917,-4.7695475,5.4205422,-4.101847,-5.285489,3.8399153,6.632249,-4.364502,7.0161757,-2.2445738,2.6103761,3.9889948,-6.9585404,-2.728963,-3.1022048,2.5649447
-0.4494439,1.1433989,-1.6502156,-0.49857527,0.57612026,1.7703059,0.37895945,-2.0089788,-3.4249196,0.6005248,-3.123208,-5.602572,-6.8111672,-1.4931787,-1.7429837,0.597452,-6.271657,-1.3124844,-0.86997974,-0.47223812
-0.63961196,-0.1977578,-0.113182284,1.2552028,-0.17810471,-0.88439715,0.22961,-1.2718585,-3.089082,1.9987739,-1.043614,-0.30555972,4.269527,-1.8622482,0.79761314,1.5929754,-5.545752,4.003888,-1.9004838,1.7852098
-2.888945,-0.6888894,-3.5920744,2.7466805,6.9016604,-4.0913086,-1.033321,-0.67478704,-7.0746937,3.9446948,-3.8589244,-7.757615,0.67637366,8.043246,-0.6619265,1.6284521,-8.6395,-2.9349608,-4.8258286,-0.1443489
-1.6370653,-0.5058081,0.38912278,1.2166986,2.5216343,1.1284189,-1.102863,-0.9492344,-1.5321602,-2.23202,-3.0848918,-3.2435153,-0.87977934,-3.1870494,-0.9840026,-2.493409,-7.2557216,-0.23533899,-2.1072176,-1.4681692
-0.84497654,0.25949353,1.5970467,0.20588428,5.0710006,-0.8957339,2.7600954,-0.5084067,-1.9772779,-0.5322833,-0.453199,-1.7388499,-3.9539142,2.0676894,2.1569753,-0.7296768,-1.2751508,-0.71443105,0.9219479,-0.70026314
-0.30795074,0.16950129,2.103684,0.8330001,-0.51743275,-2.1844,-1.7129209,0.08761361,-0.7946225,5.7410955,-0.12436092,-0.39907485,-2.913782,0.47088405,2.587708,1.7351197,-2.7761834,-2.705769,0.047885265,-2.0583875
-0.24544536,-1.9107136,-0.085600816,4.505734,0.5227822,-0.19506393,-1.0809296,-1.7727773,-3.5241582,-8.155946,-11.006477,-9.139005,-3.664603,-3.480393,-12.661106,-6.7296762,-11.285267,-4.085556,-9.899029,-7.576073
0.46648398,-0.25951776,-0.47320166,-0.53220457,-1.12604,0.14459358,0.22348234,-1.3845229,-1.4413934,-1.7316008,-2.9549565,-3.7032654,-0.37969637,-2.5999906,-5.0511875,-1.7763592,-5.4652042,-2.6259584,3.3163593,-8.1631
-1.1128303,0.57506806,0.7581501,1.6860288,1.0228311,0.6166007,-0.04510883,-0.021577435,-2.5673575,1.5980098,7.7104506,-0.3337858,-0.52092826,4.0919104,-0.38320297,1.1377101,-3.2469192,-2.1535718,9.667398,-0.92282677
-0.7785301,-0.77587026,5.083242,-0.56296355,3.0535195,-6.914322,3.0420432,3.6779518,-3.5195985,-0.40692014,5.608116,4.4438553,-6.7317357,-6.8664947,-3.4634128,-11.0123005,-4.9049063,-4.1277237,-0.67314637,-2.029193
-1.8375753,0.54235387,1.2649322,1.7044146,0.25843608,2.4687414,-0.5328822,-2.2151983,-0.8632698,-0.0633599,-2.192479,-1.7829758,3.4384634,-1.3012714,-0.5383273,-3.5460565,-10.677581,-2.4213934,-9.675559,-4.984954
-0.40315995,-2.0670936,3.1818237,-0.74984694,1.0607635,-1.6819115,0.60345495,-0.34025267,-0.42876443,-0.8849171,-0.81153214,-12.61448,2.417568,-2.1596322,-3.7205276,-3.7345226,4.875481,-3.8001459,1.5675598,3.3905451
-0.85865784,-0.81926095,2.698057,-2.0789433,-2.5205836,-1.8193245,2.0210168,-2.5720568,-4.3224974,-0.8596117,-4.185207,-6.7059307,-0.37867087,0.8118549,7.7545776,-0.13974532,-1.9746655,1.4125459,1.410394,-5.931049
0.3645369,-0.47635067,0.030664697,1.2369558,1.7555153,0.10277164,0.06368056,0.0061646057,-2.484154,2.159729,1.3274715,1.7565441,-2.0167832,0.9606782,2.1440353,2.6757154,-0.12032134,-0.87890416,-1.6501899,2.097344
-0.039738208,0.0447069,-1.359031,-3.3125186,-2.9766915,-3.7398977,3.9692254,3.4971974,-2.8630393,-2.2805684,-5.406594,-2.8148713,1.7963104,3.3698986,7.0734725,-5.678709,-2.8446634,-1.8071716,-1.4869903,-4.5861454
-1.3517948,1.7250942,-5.0506587,2.2305691,-7.563819,-6.5329657,0.28034422,3.6478984,-1.9643111,-0.13312364,-5.194727,0.04377485,8.23915,-3.2434871,-4.195929,-10.006886,-11.2761965,-6.577906,-11.637993,-8.804424
-2.7078922,2.2407925,-1.0216236,0.5389954,-0.06135402,0.8487065,-4.5161786,1.8417645,-3.3125331,-3.4041495,-2.4489644,-6.6624584,-2.8217115,-0.80471796,-7.867831,-5.4264646,-7.0733857,2.9285676,-4.899459,-10.076393
-0.72118247,0.34401974,1.5342096,0.10304211,2.1972554,-3.2445998,-0.43827415,0.0021229687,-0.28295466,0.6972018,-0.38195813,-1.0110716,1.9693651,-1.647878,-1.1917374,-1.1968246,-4.748141,-0.89556396,-1.7830263,-3.2365632
-3.1528888,3.285613,1.309219,-1.7172692,-1.0164058,1.0342823,-2.455429,-6.391036,-9.785354,-6.3216033,-13.189963,-3.315279,-6.107646,-9.515424,-3.839798,-5.9984345,0.05777678,-5.840651,-16.148613,-12.91629
-1.9328399,-0.45705524,-0.82475424,1.3459142,-0.13831118,-0.8334814,1.1295661,-0.11915525,1.5943966,-1.7764235,-2.58353,-4.087123,6.6217074,-0.82129073,-3.6441782,1.389993,-7.108968,-1.2496734,-4.9308853,-4.488371
-0.5842909,0.91799957,1.3722851,-0.3556514,-4.145365,-8.046919,-3.2310712,-1.4154617,-8.405556,2.9353433,-1.0075052,2.4858887,1.6851566,-1.9445504,-0.8576212,3.6821213,0.16881523,1.1164715,-0.38545695,-0.2142796
-0.96488965,-1.0922968,1.7637987,0.4871575,-3.6259017,8.459922,-7.715068,-3.4418786,-4.533287,3.1803308,-3.225065,3.5652618,-2.2631567,-3.7334406,-4.444569,-1.6537092,-2.6555057,-4.80656,-13.597001,-4.8142457
-0.8469362,1.2934923,1.2857478,1.3428552,-7.4869413,-4.5355034,-7.6715007,-2.5168526,-4.715046,4.7424116,-1.367116,-4.067803,-6.5944047,1.591264,-2.0924864,0.7595049,-1.439574,-2.5314026,5.9880075,11.681787
-0.10492003,0.30828354,0.70382285,0.9576853,0.18199125,-0.36656085,0.6612641,-0.8908123,0.39171556,3.1473973,-1.67102,1.2265185,-0.17280743,-2.8746328,-1.2539166,1.8453145,-0.3403622,-1.1559685,1.7442573,-2.2515695
-0.29774082,0.5577156,1.1388392,2.8686497,4.8271184,-0.394317,-0.40583494,0.4441504,-1.359376,0.6058275,-0.004338234,-2.511103,0.05462886,-0.62484676,-1.7306238,-1.8482704,-7.0998206,-3.0690958,-6.665161,-2.461768
3.4795647,-0.10434082,4.9823647,0.7164807,-2.812504,5.06516,-5.30728,-3.4415433,-2.4523609,-2.358847,-6.981908,-3.9461024,-2.6206925,-9.845351,-1.8840411,2.1007788,-9.350181,-6.699894,-6.332549,1.7461691
0.6025942,1.0353601,0.06251168,-6.9394827,-5.3986225,-5.1069727,1.1496924,3.9323883,-2.869677,2.160896,-4.3378487,-5.03048,-4.6608915,-5.6757445,3.2494383,-0.025610324,-4.4193616,-1.3630486,-1.5931542,-3.555091
-2.402637,-0.4177554,0.23507227,1.755249,0.22286387,-5.063593,7.419397,0.71617866,-1.1601665,-3.630008,-3.6033716,-8.049026,0.08069325,-9.88285,-3.2352061,-6.652836,-19.308693,0.93481475,-2.381495,-9.093991
-1.1733422,-0.2418198,1.5775436,-0.041586448,0.008069318,-4.1409774,-3.5223317,-1.3033313,-5.3212724,-2.467242,-6.5811257,-7.5481753,5.8357964,-3.254952,8.312412,8.03681,5.7789807,-3.3720317,-3.3771915,-0.86727875
-1.2666414,-0.3766883,0.85851336,-0.6751451,1.2384423,0.09285748,-2.0967116,-2.0491798,3.5992463,5.1474204,-1.0806845,0.52751654,4.0877423,-3.1037505,-2.226736,0.6213301,-2.4539294,6.7369957,-2.0954204,-5.98629
-0.4998814,1.0277923,0.7278333,0.058658212,-0.8745439,-3.6613648,1.3841422,-0.9185809,-1.9754215,6.0608196,0.5024062,4.215427,7.41983,-0.69419605,-0.27910358,5.3825502,-2.7609932,-0.81324136,-0.18441042,0.4615889
1.33902,-1.4011256,-3.3387685,-2.9016845,2.5960007,-3.1859484,2.1398418,0.38955152,-5.5947886,0.4001921,-8.125341,-8.718969,-3.166584,-3.2046933,-4.215367,-5.6422896,-8.423207,5.5445867,2.2248642,-2.969686
0.11126928,-0.5912158,-0.6351877,-3.0625467,4.724498,-0.6664526,-0.12909187,1.1414561,1.173801,0.65701574,-3.8872938,3.4302926,2.276146,5.730485,-0.1601237,-3.8080215,-0.8890619,0.09496935,-1.5073279,8.2722
-2.2602665,-0.640944,1.8660014,-0.6566231,-4.39131,-7.3087764,3.4321902,-4.25562,7.8753586,-2.4983482,-8.033654,11.5755415,-0.2653338,0.75078595,3.9786663,3.0814595,-2.3390577,-3.9343493,7.114054,-7.549397
0.43255883,0.060134035,0.5075147,-1.0377024,-1.999986,1.6259557,1.6142098,-0.02261222,-2.0530748,0.85664916,-1.8362767,-3.1053689,-2.8396997,-1.2076142,-1.3904152,4.0443363,-3.6150262,0.15416534,0.29655296,-0.28881168
-0.33621266,1.0314616,0.22046898,1.4080274,-1.1171199,-4.6981926,-3.5515814,-0.93760043,-4.1224637,6.9290257,3.0696018,3.2366512,0.107642785,-1.1328579,1.6461561,0.81502366,-1.3170855,-1.5476466,0.06955403,-0.94224566