1.179113,-0.5670397,0.5519863,-0.60047996,-1.6714752,1.2943588,-1.4443494,0.84178203,-3.388416,-3.0002043,-0.8029049,-0.73103267,-2.3789854,-2.5653121,-3.9853058,-2.6848698,-6.538626,-2.4815948,-8.379495,3.3653474
1.4692816,1.2581229,-2.6032405,-8.563162,-6.0578275,-2.3454833,-2.8150706,3.6564903,5.126419,-3.7773309,-0.47629443,-9.967877,-2.3130217,3.7012823,2.430714,-6.7777762,-4.849694,-8.057778,-5.0655336,-3.5866
-3.354077,-2.4243486,-0.74859667,-0.40530378,0.70169306,1.7514145,0.50735193,-1.7449925,-2.8553948,-2.5908432,-1.692968,-4.978067,-1.8684727,-4.262194,-6.161044,-6.156624,-7.7558174,-2.9238331,-5.9262147,-7.59446
0.113309875,0.9245157,0.48489666,-0.96879816,-1.2492079,-4.5099273,1.6896915,-0.07009362,0.9410995,-1.846864,-1.3401567,5.653281,-2.2578025,0.1766998,-5.0194025,-7.4196305,5.747088,0.7711115,-0.98962206,1.8275728
-1.0182654,-0.2630169,-1.9068508,3.1760235,-1.7641888,-1.8010565,3.8681872,-0.4331579,2.0914586,-0.11466737,-1.4060708,3.2955678,-0.7077724,2.838777,-3.8827255,-1.7747878,8.6949,1.4980761,1.4026269,-0.18994477
0.06914463,-0.89474,2.2217278,1.0626853,1.2280191,-0.0859981,0.09171134,-0.8516843,-0.052385382,1.5617269,-3.9348476,-6.9028254,-0.81869674,-1.9276135,1.3310335,-0.5071441,-5.4465985,0.06318842,-3.6000445,-5.82597
-1.7051152,-0.28833488,1.2900256,0.13062419,-0.3583062,7.252999,-2.2496111,-0.43488392,-2.0577195,-2.5773056,-2.3090143,-2.5666618,-1.5795366,0.0017399365,-1.7679119,-4.4115353,-9.713183,-1.7845559,-6.1958637,-9.334731
-1.241053,0.15766005,-0.24294904,-0.280316,0.43781048,-0.22920483,0.9311698,-0.845355,6.077173,3.2733667,-0.45385277,-1.347044,-1.0286084,-0.8813866,-2.1259067,-1.5865114,-3.5568426,2.6901667,-3.6058924,-1.7814982
-0.21522748,1.3042072,1.9225265,0.77599436,-1.2080423,-2.181519,0.035442486,-0.5910533,-1.9273286,2.6045678,2.9663463,2.756415,1.1057291,1.3197396,5.7201104,2.2080352,0.9197648,-0.38789803,1.0373147,1.3698446
0.113976605,-3.3076434,-11.378551,-14.865039,-11.69077,-13.600627,-11.501806,-6.502133,-4.10937,-7.978611,-7.779567,-0.74973255,-5.902202,0.79963076,-5.730296,3.628622,-0.74821496,1.6678764,-5.186374,-0.36429244
0.23065835,0.7390244,1.772844,1.3363692,0.44802573,-1.3019257,0.35571143,-0.23742287,-1.2653964,0.70136255,-0.43348247,0.34834412,-1.7614504,-0.37291214,-1.9996088,2.7902086,0.2201819,3.0109336,1.4503018,-1.5868907
-1.3620937,-3.2973604,-0.17828661,-1.1440278,-3.3928668,-6.200021,-1.6483126,3.3335369,0.18678983,3.0267222,2.7295372,-0.91575336,0.040737744,-0.17748292,-6.9533577,-1.7930007,2.8355017,0.88957626,5.0395164,0.94988585
-1.8699617,0.8183723,-1.0523105,-0.6967539,1.0590892,1.8832445,-0.33467463,0.36621213,-1.3609384,-6.0476065,-3.282146,-7.3423786,-1.0710458,-6.397606,-3.2763302,-6.9302163,-5.1479287,0.3489747,-9.060798,-9.212639
-0.29021823,-0.04089622,-2.131359,-1.2790669,-3.1422024,-3.3858688,2.0426092,-2.3950832,-5.9539495,3.8132937,7.177987,-4.1961346,5.7832494,-3.4536874,2.618909,3.656914,-4.157623,-2.766977,-2.753948,1.0652996
-0.44727474,1.0970546,-1.6378983,-0.51213855,0.5807245,1.782436,0.45973206,-1.9020312,-3.3130102,0.9620543,-4.1652813,-4.9928207,-3.2518375,-0.98976785,-1.6631035,0.59937954,-4.563918,-1.3257762,-0.8220099,-2.362776
-0.63666636,-0.19632842,-0.05184889,1.3429438,-0.2749424,-0.8906811,1.9723488,-1.2169242,-3.0953803,2.0323117,-0.3529164,0.2572445,1.258591,-0.28990594,0.8730065,1.6451871,-5.032102,3.5601406,-1.2584317,1.73262
-2.6378267,-0.23060848,-1.5062666,2.0200083,6.373203,-1.8247576,-2.4276886,-1.7484978,-6.87936,3.863121,-3.2986062,-6.507675,0.11325407,6.4291162,-0.5180492,2.0205467,-6.6746974,-2.8562007,-4.4841967,-0.7301572
-1.6360365,-0.46588397,0.39234853,0.6710303,2.9865918,1.1291169,-1.0981276,-0.9265797,-1.7929718,-1.838626,-3.3826916,-2.0871277,-0.3299414,-2.6647255,-0.97335947,-2.3725717,-6.1697125,-0.25842574,-2.6358948,-1.7392031
-0.84179825,0.25220403,1.6193764,0.23777574,4.3176637,-0.96396565,2.3921366,-0.4750649,-2.0435007,-0.435041,-0.46936017,-1.5062993,-2.1999724,1.2882134,1.9973117,-0.46934196,-0.36935672,-0.71541667,0.8922634,-1.1784123
-0.30489945,0.18402508,1.1110351,0.88169354,-0.41182017,-2.154503,-1.6504958,0.09611172,-1.0386808,4.418692,0.41087553,0.3993687,-1.5568506,1.7777759,2.4197502,2.020592,0.18809086,-0.21390304,0.073528215,-2.3522332
-0.24013554,-1.0839556,0.080855645,3.3555522,1.1044064,-0.18518987,-1.2668641,-1.1163985,-3.82682,-5.0907564,-7.2097106,-6.725825,-3.2862933,-4.040487,-12.055783,-4.9972367,-10.727913,-3.93954,-11.589397,-7.4740977
0.34835663,-0.163757,-0.285436,0.15577203,-2.0978534,1.0102501,0.24355078,-1.221095,-0.95217437,-1.51908,-1.8608497,-2.0220032,-0.5808552,-2.3979714,-4.909526,-1.4299452,-5.7952023,-2.5216813,6.7495627,-8.303967
-1.1084353,0.61833185,0.6990136,1.7025415,1.0298822,0.6266777,0.18006961,0.04626601,-2.2337832,1.9685317,4.282006,-0.06825422,0.11077049,2.7758036,-0.3422981,1.2368032,-2.9637852,-2.254915,9.293879,-1.4823831
-0.6224397,-0.22362861,5.0478363,-0.18096349,3.7575953,-4.140811,2.8551564,1.8838732,-2.4587088,0.14325589,4.380717,4.0157056,-3.987748,-6.216229,-3.2797825,-10.372756,-3.211337,-3.7422369,0.0527085,-3.5149367
-1.8174884,0.51647353,1.2871428,1.9883325,-0.22771564,1.5615325,-0.5740379,-2.0251186,-0.8188719,-0.06601767,-2.0486152,-1.1655153,2.8276153,-1.097026,-0.52506375,-3.3742852,-10.3306675,-2.6819665,-8.827039,-5.3775754
-0.1483798,-1.5038507,2.3311667,-1.0739666,3.054305,-1.1819041,-0.7923888,0.14623222,-1.2364897,0.47188127,-1.0691351,-2.7348323,4.533932,-3.390278,-3.716722,-0.55554503,-0.84201247,-0.6667013,1.4711846,-1.5863022
-0.86113465,-0.7558182,1.339232,-1.1300704,-2.2554092,-1.6142578,0.4918993,-2.3059711,-4.2814717,-0.39846385,-2.0628874,-2.4010997,2.151928,0.352501,6.60034,-2.4752262,-0.14094979,2.9616618,1.1867476,-5.4510055
0.36557135,-0.46814668,0.037210993,1.3704705,1.2955849,0.17597233,0.14754099,0.015069534,-2.4977126,2.3128889,1.1727996,1.9380839,-0.49687803,1.9299284,2.1471338,2.678093,-0.032395717,-0.87780887,1.3604759,0.20204104
-0.034283247,0.22048204,-0.1611848,-0.16650197,-3.0108848,-3.4318213,3.2800946,2.0830731,-2.571563,-1.1884423,-3.828797,-2.2016125,2.8325174,-0.42456046,6.3829517,-3.4486187,-2.048262,-1.5609534,-1.219053,-4.405377
-0.9765369,1.2332321,-2.3506184,2.2921321,-2.0835874,-4.055055,1.5832686,2.3008404,-1.4772129,0.6788476,-3.5375164,-1.0213602,5.4114656,-2.7175295,-3.901509,-6.7412443,-9.995948,-6.3657346,-11.485189,-7.7485223
-2.58779,1.3384407,-0.5953133,0.7703716,0.1278864,0.9156052,-1.6904694,0.4794437,-3.0175734,-2.1542737,-2.4215972,-6.866326,-3.1397138,-2.1324148,-8.170074,-4.535074,-6.981967,1.7621868,-5.574918,-10.230079
-0.71741974,0.3301852,1.5380208,0.2651403,1.799846,-3.1934836,-0.70780337,0.054970745,-0.8766266,0.7701936,-0.17476556,-0.7788248,1.5799743,-1.6110482,-1.0991954,-1.1361462,-4.691738,-0.88923097,-1.6100609,-3.482235
-2.733091,2.1011333,1.4256365,-1.4880903,-1.01396,0.77278376,-0.90413845,-3.3275528,-6.4653287,-5.0912924,-9.998101,-1.6836427,-3.0575936,-6.81692,-3.2643845,-4.586687,-5.3731365,-3.1239963,-15.975441,-12.482169
-1.918081,-0.4808306,-0.81405324,1.1368219,0.18716332,-0.812736,0.4476763,0.1017561,-0.5500667,-1.3917686,-2.4055426,-3.903816,5.35454,-2.1326587,-3.4990098,2.2215164,-6.9149203,-1.2386118,-1.9063891,-4.6350136
-0.58209527,0.91961145,1.3551704,-0.3641827,-4.1241693,-8.020984,-3.241407,-1.3861127,-8.412374,2.962247,-1.277787,2.4772964,-0.9500696,-1.7512696,-0.84997994,4.63607,0.17175476,1.1166855,-0.3830082,-0.21099755
-0.8635302,0.0904666,1.6964473,1.1715683,-4.1892343,7.191167,-3.8715425,-2.8436837,-1.6530964,1.3078557,-1.8989291,-1.0870488,-1.3115178,-1.6578683,-4.155122,-1.6539882,-8.804519,-2.1290505,-13.496351,-5.15807
-0.5672008,1.1389405,1.0603033,0.24806792,-4.625406,-2.5414011,-4.2744384,-1.1863978,-3.3685548,3.9729826,-0.55695355,-1.4636865,-7.1100416,0.83081216,-2.1658757,0.9696853,-0.8815924,-2.4799607,5.364453,7.3742723
-0.103782505,0.30075318,1.5366403,1.0075773,0.21931815,-0.3465201,0.5909302,-0.8410713,0.46170843,2.2123039,-1.6082116,1.7829405,-0.1321818,-0.8481125,-1.2101908,1.8017997,-2.7391443,-1.1625663,1.7326624,-2.2570317
-0.22732139,0.8254782,1.225627,2.7315917,3.2107596,0.28756338,0.26367116,0.68470967,-0.7901147,3.4144268,1.1902031,-1.8447353,0.22850977,0.34372774,-0.9993459,0.80003625,-6.63466,-3.0214326,-2.2313879,-0.6835669
3.029542,0.59615123,2.8768938,0.871704,-2.5657284,4.1496043,-4.130549,-2.5443423,-1.7322835,-3.749146,-3.6131845,-3.433356,-3.0536065,-6.666697,-1.3017378,1.4308002,-4.7443333,-6.4078093,-6.1917906,1.5693742
0.20339051,1.3659445,0.7103946,-1.7558566,-3.4791195,-2.6710196,4.170986,0.872916,-1.8951657,0.96736836,-2.4405115,-1.6587815,-5.887288,-3.529113,2.9915504,1.2543839,-2.5702782,-0.9629287,-0.73555344,-2.8911788
-2.2873428,0.07106532,0.23960409,2.2095413,-0.28481427,-4.520944,5.678728,0.17064364,-0.1494312,-1.7966733,-2.3018525,-7.2973905,-0.06296136,-8.977183,-2.8022237,-6.3387303,-18.634146,0.8914625,-2.325437,-9.129432
-1.1564535,-0.2588541,1.5422326,1.0444915,0.05569293,-2.9193304,-2.0556564,-0.9314194,-5.063539,0.406913,-3.2454107,-6.505374,0.7867778,-1.8669224,6.858048,7.78023,6.910916,-3.4350085,-3.5537167,0.67890877
-1.2530699,-0.35664383,0.8368512,-0.61062187,1.0768868,-0.22939676,-2.157279,-1.9355006,3.2265735,2.8843973,-1.2271143,0.62437046,3.6616366,-2.9162872,-1.8978513,0.40512034,-2.1454315,6.3043704,-1.7988553,-6.1435966
-0.49397388,1.0450177,0.8676245,2.3548803,-0.21759738,-3.542693,-0.68854976,0.48559603,-1.972734,4.9633956,0.57753676,3.4542704,2.42183,0.4982197,-0.25191626,4.256195,-2.7551684,-0.81348723,0.8788139,0.73512566
0.9640479,-1.1793534,-2.4768724,-1.2073503,2.5721643,-2.685644,-0.29697752,-0.87029845,-5.429349,0.0045423512,-6.929124,-7.641375,-3.3479402,-4.3433414,-5.0653577,-4.59311,-7.723355,4.276882,1.94434,-1.9601498
0.088705234,-0.59000075,-0.41317183,-1.3241369,2.270308,-0.49456567,0.68934506,1.1264561,0.7616079,0.76283336,-0.8897955,3.1405883,3.2555468,4.9315586,-0.007064349,-3.3538158,-0.2793512,0.09724318,-1.4967192,5.5380964
-2.2248986,-0.10364871,1.0293452,0.31536198,-1.9969503,-4.596049,0.5857637,-1.7873764,6.993065,-1.4112674,-6.4030213,9.411984,-1.2274405,-1.2928278,3.7211134,2.884618,-0.6412469,-3.6332455,6.673007,-6.065809
0.43289968,0.06491556,0.54481405,-0.8384691,-1.9401141,2.008285,1.3876069,0.02873771,-2.0249658,0.882258,-1.8625395,-0.75333184,-2.6704507,-1.1975291,-1.3421494,4.0017123,-3.6622734,0.14735764,1.3962978,-0.43669805
-0.33092228,1.0856054,0.26897708,0.64042175,-0.9341737,-2.5502138,-2.9435868,-0.8917863,-3.9611259,5.6160965,2.7524204,3.1316974,-1.3597136,-0.07641913,1.5082432,1.0103933,-0.95591366,-1.5406624,0.33866078,-1.5482854