1.2894621,-0.6574971,0.5275972,-0.61479515,-1.8544334,0.8410269,-2.1857655,0.82913905,-3.4003327,-3.6436985,2.7898636,-0.5563223,-2.5633006,-2.891751,-4.0069265,-3.8139985,-4.926225,-2.5041804,-8.645769,4.08269
1.4194547,1.4281236,-2.8828156,-10.900055,-6.6346664,-3.904262,-3.5479152,4.8528867,5.669486,-4.3113055,0.49602038,-13.188656,-2.858452,2.788095,1.6728085,-7.1887503,-4.0358095,-8.58895,-5.384583,-3.5231318
-3.3571115,-2.4232528,-0.74876904,-0.40574557,0.70217985,1.7506162,0.506721,-1.7434256,-2.271316,-2.6396897,-1.6335963,-4.978156,-1.8752396,-4.5346045,-6.3797865,-6.1690965,-5.5484705,-2.9403625,-5.932545,-7.5939517
-1.0469271,-0.69932526,-2.76881,0.7753751,-2.3639154,-9.106991,2.6646402,-1.7341958,1.4177746,-3.3661575,-0.6091622,8.295179,-6.0079246,0.9162007,-5.0464416,-5.2051187,11.3183565,-0.7470247,-1.1271536,0.6633328
-1.0842983,-0.9958194,-4.4003353,5.4827385,-2.5468085,-0.7726062,3.8494778,-1.2045399,2.197876,-0.28295782,-1.940381,2.4445748,-1.8065019,4.870836,-3.9574203,-2.034689,8.094491,1.5887685,1.0633073,-0.47796825
-0.0010061264,-1.0263,1.9758174,1.1550735,1.1283637,0.37202623,0.27106476,-0.942145,-0.28359887,1.5230812,-2.5543275,-8.615185,-1.641105,-3.1422043,1.3385105,-0.72487307,-4.975935,-2.4645684,-3.8633442,-5.487997
-2.030228,-0.52877706,0.936659,0.090152904,-0.31541926,6.630588,-1.7253655,-0.7574703,-2.3485293,-2.6560848,-1.9909563,-0.7285466,-1.6757491,-2.2394764,-1.7352232,-4.820289,-7.838224,-3.1273766,-6.2964587,-9.377362
-1.2446656,0.16653982,-0.2549944,-0.28445733,0.6320027,-0.23590007,0.84862554,-0.879901,6.680754,3.325747,-0.4339455,-1.4707799,-1.1219838,-1.2483848,-2.304717,-1.6574268,-4.230001,2.6965983,-3.6300044,-1.7672164
-0.21620692,1.3029646,1.9337375,0.7163256,-1.2310953,-2.1543894,0.20741318,-0.5988029,-1.9280992,2.6365056,3.0740545,2.751764,1.0489969,1.3030919,5.8354025,2.1786928,0.92962605,-0.38649613,1.0198979,1.6106216
-0.4699657,-4.6940866,-11.1464615,-15.454596,-11.600788,-16.22823,-11.151614,-6.9985733,-4.189557,-8.162228,-7.3227096,-0.19040178,-5.42777,0.82457995,-5.778513,3.63257,-0.11773124,1.636758,-5.4321995,-0.66586494
0.13568191,0.5044722,1.1457541,1.3224378,0.40764576,-4.7811685,0.15057479,-0.3906986,-1.3670018,0.5491502,0.39810887,5.0064216,-2.2465355,-2.1519592,-2.017881,2.682091,2.910334,-0.44037783,1.4296806,-1.6200975
-1.7556272,-5.406103,-0.20401077,-3.6546443,-4.3849373,-3.1636276,-2.698114,4.064514,-0.07161716,2.9235919,4.330656,-5.162502,-0.3544999,-0.034785215,-7.025414,-2.3969216,5.6911345,-1.3169683,4.6402884,2.0519383
-1.8816783,0.7981768,-1.072412,-0.6513032,1.0969542,1.9208547,-0.36139035,0.15076226,-0.5781554,-6.1983433,-3.0811815,-7.3322206,-1.2854413,-6.6868,-3.3251703,-7.048949,-6.211564,0.38744238,-9.105539,-9.310168
-0.2529804,-0.11654154,-2.477848,-3.8988152,-3.2654424,-3.398059,4.959647,-3.2748091,-5.8808,3.474829,7.4845266,-4.2881317,6.2783833,-3.550799,2.2806697,4.7988944,-5.1438174,-2.739672,-3.074737,-0.45625857
-0.44834837,1.1144052,-1.645651,-0.50896543,0.5794144,1.7761438,0.41819924,-1.9614496,-3.4089327,0.8764954,-4.1219387,-5.5939703,-3.5871522,-1.1192051,-1.6721128,0.5302618,-6.161538,-1.3172326,-0.85054487,-2.324121
-0.63822085,-0.19672994,-0.06473455,1.2161263,-0.31289247,-0.891041,-0.057293564,-1.2367841,-3.0949981,2.0300155,-0.99542654,-0.2991967,4.28566,-0.3931021,0.8302442,1.5786711,-5.4708343,3.7279134,-1.4017937,1.7255383
-2.801798,-0.48153648,-2.3052154,3.2628326,7.5610623,-2.542137,-1.4056594,-2.186139,-6.924875,3.7773504,-3.2696235,-7.472552,-0.7232763,7.424133,-0.61836344,1.9621476,-8.282065,-2.8957956,-4.7986445,-0.2241813
-1.6366184,-0.46513247,0.391551,0.67665094,2.9852648,1.12888,-1.1071634,-0.9333518,-1.7794936,-2.0413198,-3.267683,-3.22823,-0.6643043,-2.7567306,-0.97813565,-2.4508798,-7.2048335,-0.24602568,-2.6504421,-1.7493712
-0.84377205,0.2570201,1.6071821,0.20313026,4.745544,-0.9391976,2.3826575,-0.48705813,-2.0294998,-0.4674448,-0.4115108,-1.7237015,-2.2717729,1.4272903,2.1194308,-0.6535437,-0.8624027,-0.71353495,0.89196515,-1.1816071
-0.30715412,0.17083724,2.0881288,0.82430124,-0.43041617,-2.1875947,-1.7660984,0.08724839,-0.9176722,4.858002,0.064993955,-0.39934903,-1.670336,1.8068076,2.4557405,1.8844366,-2.7607512,-2.7071378,0.05209123,-2.4414668
-0.19178881,-1.4931277,0.037195515,3.8376524,1.1166528,-0.19619143,-1.440515,-1.4399018,-3.7350543,-6.3559947,-9.308993,-9.069973,-4.788221,-4.700387,-12.584473,-5.587093,-11.258965,-3.9062145,-10.437079,-7.6895366
0.41972515,-0.212654,-0.3719625,0.20342766,-2.1720908,0.36745426,0.42015585,-1.329867,-1.0848877,-1.6131766,-1.799166,-3.7009153,0.09825007,-2.4871032,-4.998842,-1.599974,-5.459994,-2.550114,6.3426847,-8.452688
-1.11121,0.70509577,0.616768,1.6986359,1.0284971,0.6230141,0.124723464,0.012003892,-2.3724427,1.7175918,5.947882,-0.23540956,0.01633553,2.6953704,-0.37056673,1.1517096,-3.183803,-2.1795225,9.736571,-1.5824194
-0.7153346,-0.80763096,5.7346516,-0.54888207,4.733151,-6.1263723,3.3505814,1.8026139,-3.115953,-0.5945213,5.6583295,4.3999453,-4.2185197,-6.469251,-3.4253786,-10.674724,-4.655372,-4.0146575,-0.5281406,-3.6295822
-1.8306936,0.51696676,1.2723454,1.9576888,-0.24696119,2.3654382,-0.56424576,-2.152917,-0.8472949,-0.043366306,-2.0313687,-1.779723,2.9668438,-1.3025328,-0.53085417,-3.5522108,-10.659955,-2.4941077,-8.894377,-5.4190598
-0.30746606,-2.0344348,1.8795863,-1.4490001,3.37453,-1.2483894,-0.4130033,-0.011648651,-0.56320655,-0.1772114,2.271086,-12.6081915,4.0629363,-3.625928,-3.741707,-0.7327943,5.2618566,-3.8119025,1.491819,0.2799764
-0.8603019,-0.793713,2.1713908,-1.3708978,-2.3550613,-1.7051755,2.2098489,-2.4305117,-4.3294663,-0.6585554,-2.2215805,-4.601074,0.7186078,0.4827958,6.891485,-2.5860522,-1.9622957,1.2630844,1.2374758,-5.896847
0.3654009,-0.47041574,0.036858913,1.4032853,1.2798064,0.14914031,0.21379262,0.011695184,-2.4910064,2.2621727,1.2843012,1.7520413,-0.9137172,1.9041029,2.1465983,2.6869116,-0.11694981,-0.8773999,1.3354061,0.14076218
-0.040058922,0.09241337,-0.073265366,-2.7151248,-3.2516842,-3.622354,4.8991475,1.9338783,-2.8378332,-1.6214846,-4.390021,-2.7583284,2.9242568,0.22620279,6.4049554,-4.0886745,-2.7324295,-1.7128644,-1.4446996,-4.4984803
-1.2666879,1.2274363,-4.3129425,3.904346,-4.771378,-4.7030797,0.81699723,2.109508,-2.0246031,0.07835987,-4.2653303,0.21741457,7.0615396,-4.012756,-4.026849,-7.473331,-11.223164,-6.442394,-11.609498,-8.543879
-2.6578743,1.7274666,-0.7982925,0.7371217,0.1464831,0.8746168,-2.1496708,-0.06962205,-3.3080544,-2.0371356,-2.8468661,-6.3829126,-1.9573694,-3.0111108,-8.193949,-5.271818,-6.2554393,2.6249733,-4.9782147,-10.588664
-0.7197679,0.32922232,1.5360161,0.24083167,1.9865985,-3.221357,-0.3294049,0.026910823,-0.59058857,0.7553683,-0.16147724,-1.0080357,1.7361001,-1.8614708,-1.1602485,-1.1892087,-4.7313633,-0.8909329,-1.6210811,-3.5055566
-3.0185554,2.582123,1.1993797,-1.6423662,-1.0013493,0.86171967,-1.0832982,-4.9838347,-7.282354,-5.5289264,-8.46105,-3.2788951,-3.3335986,-8.043864,-3.6999893,-6.5143466,0.4768485,-5.801733,-16.108335,-12.782552
-1.9256256,-0.49353108,-0.8180798,1.1381052,0.1873775,-0.82763046,1.4142768,-0.08064999,1.6158339,-1.5356612,-2.572609,-4.0684557,5.447528,-2.238568,-3.6128016,2.064079,-7.0816865,-1.2312359,-1.9240764,-4.638114
-0.5831477,0.91805863,1.3612493,-0.36849734,-4.133715,-8.042886,-3.2449853,-1.3869907,-8.41074,2.955238,-1.2441291,2.4853976,-0.9411015,-1.7516106,-0.8510769,4.6433306,0.16925976,1.1165298,-0.38451913,-0.21775989
-0.9251065,-0.5070357,1.4605238,0.98620534,-4.6717567,8.428451,-3.9046702,-3.2350566,-2.2626097,1.5677471,-1.7771,3.6708572,-1.545756,-2.8614125,-4.365041,-1.713495,-2.271939,-4.8051744,-13.560109,-5.407754
-0.76638603,1.4669108,0.97707653,1.2253472,-6.0299764,-3.7079222,-6.463292,-1.9716636,-4.3813477,4.6606874,-0.22719164,-3.531093,-7.8138847,0.37894368,-2.2209797,0.6110833,-1.2993746,-2.4502966,5.850404,8.649001
-0.10481401,0.30308062,0.70548004,0.986519,0.20233367,-0.36060816,0.5930526,-0.84658694,0.42383528,2.25709,-1.6008298,1.2304049,-0.15815169,-0.89764214,-1.2307007,1.8126874,-0.34019738,-1.1588093,1.7407236,-2.2659557
-0.26018,0.7089361,1.1833768,2.3492165,4.5451307,-0.0034567188,-0.10272479,0.5661181,-1.0948665,1.499083,0.42651775,-2.3343816,0.13814364,-0.1811432,-1.3083982,-1.0914285,-7.068724,-3.0325446,-3.2183194,-3.1018715
3.2419865,0.26922566,4.8243732,0.35035574,-3.3488896,5.052183,-4.6059136,-3.3272085,-2.243974,-4.513951,-3.0592792,-3.6323173,-3.0753274,-7.1704664,-1.4281231,1.3383118,-7.502596,-6.506473,-6.325526,1.6032088
0.48645392,1.0472679,0.41183636,-5.3927464,-3.7519748,-3.6825733,3.2130244,1.8662719,-2.8140283,1.9336462,-2.6821184,-4.9636045,-4.826081,-5.0147743,2.4817724,0.9346933,-4.321017,-1.3294448,-1.4726328,-3.855864
-2.3766088,-0.2374502,0.44159824,0.7885109,-0.54333425,-4.953882,7.732607,-0.42233878,-0.0003916266,-2.0795424,-3.1375105,-7.7852373,1.0626599,-10.069599,-3.1840353,-6.38361,-19.260448,0.94938856,-2.3154187,-9.165608
-1.1650215,-0.24032359,1.5256463,1.0229319,0.05067886,-2.7610521,-2.004489,-1.0776556,-5.1897073,0.32474077,-3.2058308,-7.443083,1.4269592,-2.120446,7.5911236,8.669117,7.2281985,-3.3708284,-3.47546,-0.77879953
-1.2628868,-0.37988582,0.8586102,-0.6242016,1.0737969,-0.0016330996,-2.149343,-1.9790907,3.4068174,2.857628,-1.0448312,0.5538867,4.3788686,-3.033361,-2.0547297,0.36237845,-2.253456,6.46441,-2.001227,-6.146305
-0.495676,1.0412403,0.78628427,2.3282526,-0.18403152,-3.647073,-1.2621182,0.46728432,-1.9672827,4.967408,0.5701953,4.338867,4.1781135,0.3690976,-0.26786354,4.302383,-2.761845,-0.8136003,-0.18063147,0.25234652
1.1868042,-1.3761208,-2.673011,-0.7109476,3.8262115,-2.99203,-0.33735335,-1.0222538,-5.4979014,0.08097666,-6.9234104,-8.326721,-4.8491197,-4.344651,-5.0739903,-4.9712796,-8.240199,5.527789,1.9333351,-2.9055634
0.09960749,-0.5947975,-0.48708352,-1.4400842,2.4058323,-0.5657237,0.3272552,1.1408067,0.901094,0.7026544,-1.0571979,3.187518,3.4481266,4.8379564,-0.08844913,-3.5722597,-0.81851166,0.095254265,-1.5068465,6.141262
-2.2954605,-0.22742102,1.1977048,0.0475836,-2.2148604,-5.419369,1.3449736,-2.7335386,7.763058,-1.4561824,-6.4330726,11.654671,-1.1870937,-1.9959013,3.5741901,2.9971044,-2.1527276,-3.7902021,6.8950005,-6.915466
0.43248495,0.05784599,0.5234825,-0.90604407,-1.9575714,1.3301545,1.6157109,-0.0065161,-2.0700347,0.8635439,-1.743312,-3.1032522,-2.7120852,-1.2840934,-1.3865963,4.022657,-3.6149774,0.1527797,0.29512468,-0.40917084
-0.3334083,1.0902457,0.25496233,1.1383877,-1.0966653,-2.3535438,-3.2411716,-0.92061085,-3.9966593,5.9070563,2.7956135,3.1209073,-2.310306,-0.11982243,1.5369985,0.916211,-1.3008182,-1.546035,0.18953772,-1.6127033