4.0182414,-1.8661338,-0.10661791,-4.216386,-2.3580837,3.6755457,0.28361213,-0.15586475,-0.94824725,-14.444604,-0.41278788,0.049932014,-2.947454,-9.794837,-8.992754,-5.518476,-6.656408,-9.92585,-12.496472,7.720853
3.5047534,0.42138708,-2.8187978,-10.364699,-10.199007,-3.7189536,-4.291998,5.980415,7.1745353,-7.8552527,0.43032783,-13.113916,-6.175454,5.519686,3.2260308,-9.7586775,-7.6105604,-12.011444,-5.0570874,-9.30573
-3.3671782,-2.287483,-0.8544716,-0.20373563,0.6787023,1.6385314,0.48405123,-1.9073701,-1.7739005,-3.0814865,-1.0264056,-10.608229,-4.2446833,-3.002772,-9.032869,-4.4069824,-9.193296,-4.724136,-9.01268,-11.687843
-4.7906656,0.1477418,-3.7811453,-6.1408186,-0.7496244,-5.7077065,2.1809466,-8.047829,-2.7740858,-11.757731,-3.4595082,10.72319,-8.558299,3.6779375,-9.235676,-2.0940049,13.0871525,-1.3177309,-6.172717,0.20327733
-4.195204,0.18554479,-3.8476527,6.909478,-5.355759,-0.9954371,4.6262794,-1.8257657,3.938833,-2.2240822,-5.713708,5.7864733,-1.9751811,8.118798,-5.698346,-4.6604686,11.029489,-1.3878303,-2.3007293,-6.311184
0.46798685,-1.8036596,3.6702678,1.499217,-0.02942304,-1.0515994,-0.017372813,-1.4324849,-0.6801888,-4.368342,-4.3525343,-10.357522,-4.9286942,-4.676109,-1.5110056,-0.47250313,-4.0532246,-0.9398931,-8.103201,-11.370037
-2.4846141,-0.76542276,-0.2800562,-0.82275444,2.0326345,11.512536,-2.8930235,0.85207653,-7.582577,-10.787526,-7.7862687,-3.308806,-2.0959847,0.3765198,-2.9957263,-9.177229,-5.1520514,-6.6181197,-7.827193,-11.627646
-1.3575078,0.73908067,-0.56669575,-0.5871272,0.50154793,-1.7420443,-1.0826445,-0.04227299,11.67579,6.3532443,-4.158276,-7.4094152,-2.5556371,-4.55667,-9.702522,-1.5520517,-3.267243,4.824618,-1.3310614,-10.092946
-0.2050714,1.7628356,1.8591312,0.23561081,-2.3763633,-2.9250758,2.279213,-1.5089978,-2.4110713,4.9879594,3.4877613,0.5331137,-3.0614007,-1.3233594,9.588159,2.8256984,6.8587227,-2.0519063,-3.5611665,0.561977
-0.3972747,-2.9806762,-12.168859,-16.09746,-12.036035,-20.095327,-12.84128,-9.22415,-7.0958376,-12.167422,-11.617761,2.9120667,-5.3637304,1.3045262,-9.069333,4.580132,-0.9278706,3.8187819,-7.190988,-0.09014782
-0.056955066,-0.31916222,2.5385075,1.9977833,-0.7292899,-9.114843,0.2353051,-2.3848593,-2.1006231,-3.3499193,-4.860096,5.5057106,-6.8914466,-6.498529,-0.95653075,5.591974,3.3555152,5.255831,-6.473824,3.1563177
0.2479902,-7.008018,-0.061083637,-10.383178,-8.80605,-8.430523,-3.382952,5.003452,-1.6889465,4.1705246,5.290355,-4.5066323,0.4331573,2.6765342,-8.833219,-7.867439,6.0008354,0.88680834,8.2237215,-0.108608164
-2.047188,2.0725594,-2.0441852,-0.8205132,1.4417531,1.6874189,-1.8725858,-1.9833386,-1.8426248,-4.0155315,-5.702025,-3.2214863,-3.6178832,-6.305483,-3.5255108,-10.902557,-8.530645,1.6917974,-8.496295,-14.229726
-2.2342732,0.8239576,-4.92226,-3.9109473,-1.2095112,0.90317386,4.025376,-10.188887,-6.232341,6.306848,11.265825,-10.665386,7.940985,-0.7954314,2.8624308,6.1316676,-4.125355,-4.4959745,-6.441433,0.19509707
-0.1595727,1.5775962,-1.8920603,-0.07461054,0.38858557,-0.704137,1.8393495,-1.6711906,-8.441959,0.17235082,-9.3367815,-10.407137,-6.8939257,-2.80634,-2.9020355,-6.7966995,-10.125427,-4.4872036,-2.4016383,-4.5714273
-0.6421053,0.44864887,-0.15856962,0.23465276,-2.810382,-0.78175133,6.7692904,-1.9602289,-3.6125395,1.5382375,-4.7403893,-1.5120101,3.0693579,-0.6091568,-3.2436929,0.14860885,-10.474312,8.187069,-5.366608,2.9001737
-3.9161112,-0.57750314,-3.9279923,2.4748168,8.56189,-2.1952302,-1.2342153,-5.2401843,-8.553188,7.4067574,-7.8130455,-7.2968144,-1.0388752,8.852131,-4.292644,3.8562593,-11.656014,-8.7964945,-5.7270346,-0.4223586
-1.7006574,-0.33316642,0.17572409,2.937612,2.1546605,0.3788352,-3.3714626,-1.1437433,-2.1391315,-6.1536937,-5.2902884,-11.080993,-8.689198,-4.006109,0.103990026,-1.7710643,-12.399595,-6.096184,-12.611811,-10.147025
-0.89020807,1.3102043,2.3644395,-1.6798234,10.462476,-7.084835,0.6728138,-1.0075705,-0.29540557,-6.745213,-2.6680677,-7.3554883,-5.723184,4.158019,-0.119041674,-5.8908324,-2.3493924,-4.0811706,1.2129418,-5.442376
-0.73530066,-1.217824,1.2058268,1.9710295,-0.8316487,2.1840725,0.11393765,-0.31092113,-0.9422779,9.762579,-1.8730075,-3.0503416,-7.5184717,0.57715076,1.2173129,-0.49087566,-3.1807885,-2.8854218,1.310505,-6.5622272
0.9679655,-4.1607556,-0.034558486,5.9269004,0.5628074,-2.3613455,-3.0213263,-1.5694263,-4.969179,-7.69918,-14.216108,-6.0744276,-3.499584,-7.8998775,-10.767694,-5.4281774,-12.359081,-8.677721,-9.381156,-10.316179
0.21882397,-1.2914402,-2.1586552,2.7445369,-1.4718556,2.550678,-0.5064714,-4.540668,-5.898473,-3.770959,-3.0106325,-3.9314222,-2.5767624,-3.1037066,-4.0588946,-8.8266735,-4.2011347,-3.5097792,-0.13415849,-3.2454307
-1.2297635,0.954381,0.6990572,1.480852,0.83532,0.43905014,3.6916175,-0.6740254,-4.47277,1.4282339,13.146134,-7.0932403,-3.1943617,5.2238603,-1.9893413,-1.1141512,-3.568625,-5.045143,9.535874,-3.7051697
-3.7315953,-2.4110463,5.9747353,-1.8639406,3.4095588,-7.1483297,3.5614996,3.7816467,-2.5560129,-5.2373857,7.870989,9.599187,-8.95489,-6.3693776,-4.6328163,-7.73138,-10.5295105,-9.190775,-3.4993002,0.836794
-1.90372,0.90116274,1.497589,1.4560289,0.09103398,1.3452654,-1.5266443,-3.0051217,-4.1392145,-2.139011,-1.3924049,-3.8349001,1.2027363,-1.3834716,-3.1766455,-6.9322567,-11.76124,-7.0102663,-9.77606,-6.723761
-0.67213327,-1.0639322,2.133172,-0.28292704,2.0990584,0.45435444,0.39134312,-4.2367873,-0.23738877,-4.8315744,-4.7534227,-8.6547365,5.299523,-2.4211545,-4.71483,-6.8546944,4.238613,-3.3782678,-2.1215892,-4.2448077
-1.3121045,0.041707646,1.4817853,-2.0442817,-3.621109,-2.3152144,0.9211016,-3.14322,-4.429589,-3.9758656,-4.9235077,-7.2713075,-1.7429615,0.2814828,9.34702,-1.9940367,-3.9875045,-1.3932343,2.5908163,-10.317052
0.37420288,-0.18238412,-0.96657896,2.9500184,1.656448,-0.8769365,-0.93470216,0.014856549,-2.6407554,1.1270937,0.17001663,1.6220651,-7.2138796,-0.8839804,2.1579907,2.7523909,-1.8199012,-0.99028504,-1.8005341,0.4103608
-0.86358213,0.3831687,-1.3608509,-2.729196,-6.8606358,-3.0418503,4.8139963,3.210729,-3.5701146,-3.0739262,-8.482639,-5.989862,2.9331524,2.422745,8.173449,-7.6649604,-8.499447,-2.0326061,-6.9329853,-2.499753
-1.5409956,2.6664393,-3.2157636,1.8148177,-6.5059147,-7.7388697,-0.85617185,5.5915484,-3.2964761,-0.41063178,-12.424428,-0.30603728,9.619778,-4.9827504,-9.911867,-12.157124,-18.068928,-7.2355146,-17.155287,-14.27231
-3.5858624,2.7418106,-1.6131827,0.1638501,0.30325228,-1.2038323,-5.773737,3.8216515,-4.152437,-4.400893,-7.264554,-0.49675757,-3.028216,-7.1790357,-9.469076,-2.097791,-8.014422,2.514958,-1.4013023,-18.682379
-0.8034701,0.82485425,1.5553825,0.032426964,0.6297733,-5.755837,-0.81593764,0.2304949,-3.1321707,-1.1678357,-4.079174,-3.266782,-1.4473801,-4.759659,-1.3581377,-2.2529473,-8.109052,-3.796218,-5.9692683,-6.3289375
-4.622623,4.799967,3.368545,-2.4267178,-1.2399639,0.17764156,-3.8104002,-7.495068,-10.345782,-10.992927,-16.662102,-4.5703344,-7.416828,-7.7303863,-7.2511873,-8.555516,-1.3799284,-9.445288,-16.384642,-19.154783
-1.9857316,0.4870767,-0.6235633,0.6300875,-0.2769571,-3.0883458,-0.38946742,-1.2712415,-2.957366,-1.9344345,-9.721673,-8.750766,6.389143,-1.3531904,-7.7284074,-0.28877896,-9.247581,-7.5712214,-1.1578108,-7.315008
-0.3098265,0.6404128,1.2596393,1.5146053,-6.0138435,-10.223239,-3.9168231,-1.3117802,-5.9188576,3.4381475,-2.0416179,1.4417839,0.64445585,0.91637844,-3.3406456,3.6084464,-0.25113595,-3.0732217,-4.7205896,-0.90179056
-1.2463677,-1.2914709,2.8370533,-0.1132813,-4.2132306,9.117814,-9.476595,-7.3159227,-5.097488,2.023691,-3.913367,2.1906426,-0.5249166,0.79809064,-2.8957875,-6.7249146,-2.9857583,-6.0628276,-24.52603,-11.614727
-1.5333618,2.9151456,0.41953158,0.30852997,-5.5315595,-5.4727335,-3.9130657,-1.7675997,-8.640493,8.131525,-10.368223,-1.5160675,-8.43484,-1.5303011,-3.4128165,-1.6250848,-0.14963986,-6.398928,2.965708,10.347797
0.2392137,-0.07721464,3.970919,0.26485014,-2.9469683,-3.1175663,4.877405,-1.9482138,-0.4742834,3.9633148,-1.2824849,-0.74582803,-1.6413542,-5.438046,-5.581109,2.2830315,-0.52990836,-5.634019,-2.814191,-3.6261885
-0.3660207,0.9608407,0.56498045,3.9294848,3.9752243,-1.4263523,-2.6613605,0.29923904,-2.780736,2.0062816,-0.11602341,-5.340287,2.214296,-2.2031329,-5.0006576,-5.550443,-10.7278805,-3.0203793,-6.949189,-7.7545705
4.1322527,-0.35579637,4.5064173,0.005688015,-5.1191034,4.635515,-3.0230012,-6.858083,-3.3870335,-7.6075935,-5.7788453,-8.086491,-3.174461,-14.322241,-3.385665,1.7743045,-8.108514,-13.782172,-5.717525,3.5719428
0.62374425,-1.2098856,-1.7291523,-9.267967,-9.293483,-6.1095276,3.9639182,4.513926,-4.171795,5.892597,-4.193941,-11.443913,-7.1317635,-10.177985,0.8430458,-2.4545352,1.6606623,-4.203799,-1.7101871,-10.388292
-3.442159,-0.27899823,-0.94525665,1.7122532,-2.262852,-7.789711,8.283572,1.0181811,-1.9458745,-9.235699,-5.16458,-11.393962,0.4760176,-12.2851925,-4.637179,-9.386766,-19.707062,5.7199173,-5.182761,-11.742504
-1.6561855,-0.49294886,1.7580793,0.15714331,-3.5064573,-2.767497,-6.198359,-1.5529639,-6.123194,-2.8120878,-7.6192837,-7.5733356,0.044826243,-5.0999756,7.1464486,10.088787,9.195888,-7.999939,2.1984675,-4.1212006
-1.4427404,-1.481565,1.677125,0.36237213,2.7613137,-2.262975,-0.6540122,1.2500825,6.700402,3.1781237,-2.7666438,-6.6580343,0.5132868,-2.4711938,-4.530788,-1.4873942,-4.066852,8.374115,-4.524075,-7.600192
-0.5669175,1.2108855,-2.9400275,6.502891,-4.0356054,-6.6446724,-1.8743403,-1.2014898,-3.0833826,4.45235,-4.85494,-1.4030524,4.6684756,-2.679584,-5.1545696,9.360322,-3.0257118,1.9741681,-2.8288007,-7.135693
2.7370505,-3.867529,-4.7272606,-4.852807,4.365516,-6.5586734,-0.018112361,-0.0070694946,-8.517793,2.436018,-9.687909,-10.174479,-3.4372835,-4.6758065,-1.4931381,-8.40236,-8.313785,7.5451694,1.4680904,-3.7128246
0.35828614,-1.8717357,-5.278075,-5.9081535,6.1766405,-1.5754385,4.121837,0.46414185,-4.4505205,-4.6724486,-5.688905,3.6690967,6.4659142,3.7398956,-4.977038,-6.658619,-6.261657,-3.0738912,-3.6575594,11.508952
-2.8188455,-1.3798996,0.8792417,-0.48403227,-4.739598,-5.308305,0.5692411,-9.467033,12.538262,-0.28083396,-12.752614,13.067678,-3.4606369,1.0992708,7.972093,5.5877185,-2.9095657,-6.0458283,9.943936,-6.8620176
1.3339031,-1.2162218,2.887177,-1.8968309,-2.2745664,3.09578,1.9187962,-2.1834788,0.1691243,-5.162577,-1.4897761,-4.9274235,-3.963937,3.6186085,-3.8822,6.112385,-1.7684717,-3.3341932,-4.08236,-1.663727
-0.60064864,2.0690813,-0.4120882,1.1416391,-3.4711568,-8.170413,-1.527764,0.048523664,-5.817809,9.992585,7.171739,3.2564096,-0.92572045,1.6446699,-1.9034203,-1.6280363,0.01335004,-5.136963,-7.43734,-7.7709503