1.3270339,-0.68328387,0.50986993,-0.5958625,-1.85461,0.84412754,-2.3257542,0.8349652,-3.4143546,-3.729698,2.8006516,-0.6890007,-2.5528207,-2.9080777,-3.9879344,-4.041825,-4.969527,-2.5221603,-8.666896,4.14497
1.4911474,1.0715452,-2.1007595,-11.128659,-6.683739,-3.7497783,-3.8570304,5.402674,5.2451305,-4.3695126,0.47486934,-13.304342,-2.9046834,2.59303,1.4799834,-7.265075,-4.0581017,-8.593992,-5.428562,-3.7353153
-3.357783,-2.42275,-0.7487191,-0.4059039,0.7023348,1.7502836,0.5063327,-1.7368248,-2.3268,-2.6454403,-1.6408716,-4.9802375,-1.8622059,-4.6139116,-6.4375186,-6.168908,-5.553607,-2.9401388,-5.93318,-7.5947733
-1.183612,-0.7323989,-2.2639813,0.6732999,-2.430261,-9.108571,4.3808093,-3.1296604,1.9818004,-3.6093836,-0.9283124,8.282666,-6.008761,1.1054354,-5.050694,-5.208716,10.890767,-0.7463067,-1.1310815,0.76963115
-1.0893188,0.057848018,-5.2330117,4.7847896,-3.298185,-0.9045216,2.781672,0.21297622,2.2893584,-0.3826974,-2.0894654,2.4563925,-1.7656482,5.040774,-3.96987,-2.0950975,8.118342,1.595326,1.0389478,-0.49783102
-0.014728505,-1.0364556,2.1744308,1.1273875,1.0937839,-0.12408211,0.8563009,-1.0008266,-0.39538312,1.4521365,-2.640784,-8.629472,-1.6100212,-3.1528914,1.3415074,-0.6585538,-5.5485125,-2.4604547,-3.9302797,-5.3294683
-2.0956063,-0.54391944,1.0236963,0.087730415,-0.31263125,7.006055,-1.8151948,-0.75720555,-2.3465707,-2.6718283,-2.0007834,-0.72840744,-1.6348338,-2.2370872,-1.7250147,-4.8264933,-8.354231,-3.1269946,-6.301105,-9.376973
-1.2451115,0.16825557,-0.254354,-0.28581885,0.6376928,-0.26491588,0.81659925,-0.884271,6.7711067,3.3362262,-0.44836435,-1.5687168,-1.1191547,-1.2712711,-2.328893,-1.6620022,-4.2563787,2.7017577,-3.6348848,-1.7826567
-0.216331,1.304378,1.9333506,0.688208,-1.2320861,-2.1899595,0.16806507,-0.5998223,-1.9283123,2.6407278,3.0846083,2.7549372,1.046876,1.3008777,5.857629,2.1767135,0.92957246,-0.38642588,1.0191563,1.7295133
-0.3348129,-4.796744,-10.563256,-15.820657,-11.550769,-16.289728,-11.858119,-6.3916144,-4.2080045,-8.212156,-7.305631,-0.21054742,-5.155157,0.8338001,-5.7962027,3.6275034,-0.25212705,1.6472434,-5.442055,-0.7145716
0.11612785,0.49725947,1.4504893,1.318062,0.4072859,-4.7999964,0.19660375,-0.39098948,-1.363007,0.52426964,0.43257517,5.0069904,-2.259178,-2.1560175,-2.0220945,2.6978927,2.4503603,-0.43923768,1.4301921,-1.6447718
-1.7782387,-5.6255007,-0.15680042,-3.7354903,-4.4043884,-3.2303605,-2.8338363,4.246574,-0.1214422,2.9705172,4.4152594,-5.177973,-0.35423166,-0.0033894358,-7.038787,-2.4081147,5.696144,-1.3083025,4.6482816,1.9997774
-1.8833542,0.93495816,-1.0768546,-0.8291892,1.1072686,1.9225676,-0.36671042,0.121695295,-0.5154408,-6.25602,-3.09066,-7.342267,-1.1808869,-6.733076,-3.335997,-7.0471935,-6.2774115,0.40175936,-9.108925,-9.375797
-0.2719306,-0.12606525,-2.5353687,-4.6013684,-3.4288294,-3.636496,4.3955097,-3.4396238,-5.8731494,3.4576306,7.6459303,-4.310699,7.182673,-3.5722125,2.2590342,4.700891,-5.1477385,-2.7409403,-3.1258721,-0.46754336
-0.44847092,1.1174499,-1.6464874,-0.5077166,0.57742745,1.7744852,0.41207808,-1.9721371,-3.4534247,0.8067793,-4.1238704,-5.595593,-3.6213243,-1.1489371,-1.6788636,0.5258318,-6.215046,-1.317187,-0.8503123,-2.3253837
-0.63840944,-0.1956997,-0.06649696,1.2207094,-0.337099,-0.90916353,0.009656605,-1.2499639,-3.0947623,2.027672,-0.99951625,-0.29918197,4.2850437,-0.4254676,0.8277377,1.5718813,-5.4720793,3.756892,-1.4235798,1.7255524
-2.8206375,-0.84769326,-2.4251559,3.4648783,7.252334,-2.7200072,-0.9894162,-2.3159046,-6.9657145,3.6913762,-3.3405097,-7.676404,-0.39011404,7.433548,-0.7494303,1.9833277,-8.312646,-2.9071965,-4.800784,-0.2013361
-1.6367086,-0.46489903,0.39139378,0.677166,2.9848242,1.128715,-1.106337,-0.9344493,-1.7961763,-2.0718923,-3.2674894,-3.2312083,-0.64517957,-2.7756264,-0.9807046,-2.4551766,-7.2205048,-0.24569136,-2.652306,-1.7497449
-0.8440209,0.2589902,1.6064466,0.18533827,4.8276567,-0.9498718,2.3779826,-0.4923824,-2.027641,-0.47414225,-0.4261521,-1.7313591,-2.2718427,1.4658686,2.1379726,-0.6646663,-0.8774336,-0.7137552,0.89361024,-1.1864268
-0.30733266,0.170506,2.0899758,0.81517124,-0.4326497,-2.1929426,-1.7649881,0.089419305,-0.91025054,4.8963404,0.042083092,-0.3984454,-1.6771158,1.8141096,2.469377,1.8611667,-2.7608016,-2.7070408,0.050531443,-2.4582071
-0.19349697,-1.5818703,0.031213498,4.0006537,0.9988993,-0.21293476,-1.5865527,-1.5537516,-3.7294428,-6.5825253,-9.523573,-9.096262,-4.038404,-4.86339,-12.645214,-6.0627446,-11.263477,-3.9165974,-10.464529,-7.753387
0.43825042,-0.22407925,-0.40740603,0.31896034,-2.1853614,0.44237703,0.39796415,-1.3498144,-1.2313869,-1.6318617,-1.8002524,-3.7054868,-0.71873015,-2.524112,-5.0070105,-1.6394039,-5.4611692,-2.5719056,6.4321012,-8.496731
-1.1116586,0.6990204,0.6241279,1.6975907,1.028299,0.6184906,0.106351875,0.0059845718,-2.400066,1.6867337,6.3713207,-0.27071127,0.04147176,2.699227,-0.37194493,1.1376886,-3.2058887,-2.178025,9.7299185,-1.5981898
-0.71994543,-0.7175558,5.421026,-0.8348396,4.7231817,-6.428341,2.3662796,3.3597474,-3.1699977,-0.68843746,5.7789774,4.177722,-4.2871475,-6.511747,-3.449883,-10.694697,-4.7158546,-4.056186,-0.5963489,-3.6991622
-1.8325217,0.5186647,1.2695851,1.9570054,-0.24938549,2.4390197,-0.57823604,-2.1759357,-0.85589725,-0.042563014,-2.0333986,-1.7804962,3.0817595,-1.3141108,-0.5321346,-3.5543277,-10.670182,-2.4884868,-8.898247,-5.4646707
-0.34093007,-2.0577135,3.0889037,-1.5877323,3.6237464,-2.449728,-0.4482583,-0.058068857,-0.56948715,-0.28236926,2.3159287,-12.61049,4.3908486,-3.6208797,-3.744994,-0.730832,4.8275857,-3.808161,1.4989475,0.85199094
-0.8593135,-0.79153866,2.2529883,-1.4889711,-2.3665118,-1.6988235,2.2736804,-2.5040543,-4.3356485,-0.79508024,-2.2372594,-6.695069,1.1440454,0.54045427,6.97924,-2.5658379,-1.9653285,1.3145134,1.2323066,-5.9675817
0.36535594,-0.47130358,0.03852312,1.4361398,1.246711,0.121688515,0.2338924,0.010635396,-2.4913237,2.2370336,1.285713,1.7541788,-0.9934292,1.8336309,2.14637,2.6896157,-0.11894464,-0.877633,1.3307058,0.12767857
-0.042580366,0.05975534,-0.08389229,-2.8889446,-3.2500896,-3.6753178,3.163646,3.2377725,-2.8509278,-1.6755854,-4.4890966,-2.773833,3.4886806,0.5170283,6.495019,-4.1725655,-2.7564511,-1.7172543,-1.4586468,-4.531036
-1.2840997,1.6977652,-4.5312366,3.4885862,-4.4901614,-4.808544,0.23134895,3.6714454,-1.957708,-0.12855135,-4.4961686,0.14701398,6.390106,-4.4924436,-4.0545177,-7.5598464,-11.238684,-6.4487114,-11.619402,-8.760339
-2.6684606,1.9399239,-0.8543236,0.63084316,0.14351529,0.8680232,-4.479496,1.7104551,-3.3413782,-2.143993,-3.3033926,-6.4544063,-1.9251554,-3.0519311,-8.199725,-5.2749023,-6.5244317,2.670341,-4.9563503,-10.81886
-0.72011733,0.33047986,1.5354738,0.21302672,2.146746,-3.2328932,-0.38178965,0.021840053,-0.5664699,0.73451644,-0.16687542,-1.0107569,1.824106,-1.9153188,-1.1692349,-1.1930104,-4.735875,-0.8911909,-1.623861,-3.5255618
-3.0617173,2.8073308,1.3708682,-1.7673054,-0.9958883,0.7046764,-1.4864463,-5.211038,-7.4924417,-5.7163405,-8.508214,-3.292738,-3.5579474,-8.161604,-3.8691761,-6.433171,0.037089378,-5.803355,-16.113783,-12.942767
-1.9283018,-0.49673706,-0.81742805,1.1400925,0.18754512,-0.83274716,1.3578293,-0.09404124,1.5971562,-1.5582292,-2.5977695,-4.074311,5.714322,-2.251399,-3.61958,2.0479074,-7.084701,-1.231353,-1.9235612,-4.6376743
-0.58331496,0.91835403,1.3611822,-0.36974066,-4.133261,-8.06213,-3.2476687,-1.3870527,-8.410272,2.9540439,-1.2431867,2.485328,-0.93845665,-1.7516786,-0.85142964,4.6447234,0.1691741,1.1165122,-0.38475367,-0.2186687
-0.93898714,-0.7960515,2.1029727,0.996277,-4.6723404,7.584179,-4.0446186,-3.2783248,-2.4335332,1.5511746,-1.8013763,3.5780232,-1.4032753,-2.8052526,-4.396813,-1.6648381,-2.701083,-4.8042545,-13.577568,-5.4181576
-0.7842822,1.3629771,1.1977307,1.3699105,-6.126146,-3.9262185,-6.4577017,-2.1218657,-4.622139,4.700356,-0.31179994,-3.995668,-7.8566766,0.460611,-2.218857,0.6071045,-1.34545,-2.4570696,5.8908453,8.839665
-0.104816146,0.30473194,0.70151436,0.9761186,0.19885334,-0.36146867,0.5945286,-0.8454302,0.39529607,2.2685819,-1.6024418,1.2295235,-0.15690304,-0.9040219,-1.2355256,1.8152459,-0.34024188,-1.1585759,1.7411544,-2.2688208
-0.26940653,0.66650754,1.176396,2.3447473,4.924903,-0.084327675,-0.287337,0.51010764,-1.1700271,1.1632367,0.2997297,-2.3871458,-1.851463,-0.4010721,-1.4277469,-1.2336316,-7.0797606,-3.0376227,-3.3626628,-3.287544
3.3297353,0.20083931,5.0771675,0.34541845,-3.335242,5.764242,-4.745605,-3.553292,-2.329906,-4.565894,-3.1046855,-3.7723556,-2.9817305,-7.1914296,-1.4994004,1.3121843,-8.841772,-6.580337,-6.3277273,1.6334932
0.5224169,1.0339775,0.24220443,-5.8723497,-4.0563912,-4.195559,1.0783625,3.9585903,-2.8341568,1.8919848,-3.1626751,-4.984586,-3.8464327,-5.0538964,2.6344995,0.83780587,-4.320881,-1.3443966,-1.5058106,-3.961664
-2.3813293,-0.3530356,0.8009814,0.5871838,-0.56800807,-4.890326,7.1507754,1.0496876,-0.08655516,-2.1163783,-3.1667528,-7.851231,0.076019116,-10.1422825,-3.1880383,-6.385717,-19.286253,0.9645015,-2.329329,-9.166293
-1.16552,-0.24148373,1.52565,1.0192932,0.051793337,-2.7987242,-2.2917337,-1.0915942,-5.2590833,0.29864237,-3.2530563,-7.468832,1.6304586,-2.1238067,7.711069,8.769431,7.3087344,-3.3747232,-3.4688222,-0.7997518
-1.2634735,-0.37911585,0.86380535,-0.627531,1.0834943,-0.115938164,-2.1714904,-1.9841627,3.4448192,2.8604202,-1.0519933,0.5386141,4.525393,-3.0380464,-2.0974674,0.37329558,-2.2919862,6.5505185,-2.035886,-6.1559196
-0.49594602,1.0368677,0.7851208,2.4268272,-0.19821127,-3.6505315,-1.4627612,0.47242972,-1.9653084,4.956633,0.5599711,4.304463,4.360478,0.35523683,-0.2710707,4.321112,-2.760729,-0.8135606,-0.18172124,0.17998232
1.2447292,-1.407992,-2.7212884,-1.061809,4.4543543,-3.09057,-0.13100444,-1.1178643,-5.5248938,0.065475926,-7.057746,-8.577882,-4.8147087,-4.3194017,-5.0579047,-5.15752,-8.266805,5.553987,1.934883,-3.0073328
0.10427677,-0.59714913,-0.50896597,-1.447629,2.3904436,-0.61603034,0.11642016,1.1550931,0.9043218,0.68693197,-1.1413205,3.2978575,3.5365384,4.836621,-0.10039291,-3.6367486,-0.8297345,0.094747454,-1.5071924,6.2998586
-2.2690465,-0.5236398,1.499586,0.072921835,-2.2163248,-5.484432,3.3315592,-3.76945,7.8889036,-1.5368617,-6.451605,11.512601,-0.9499032,-2.025652,3.5953915,2.9071164,-2.194811,-3.8144422,6.921134,-7.088541
0.43253216,0.057343412,0.50318277,-0.9328422,-1.9596955,1.4756033,1.611969,-0.007116876,-2.0695055,0.86274064,-1.7429799,-3.1037483,-2.7052457,-1.2843176,-1.3867247,4.026294,-3.6149645,0.15288705,0.2952971,-0.4103363
-0.33362484,1.0897025,0.2534283,1.3050145,-1.1471875,-2.3825405,-3.301362,-0.92628443,-3.9984498,5.9342875,2.7775364,3.1557922,-2.3364515,-0.11971512,1.5412351,0.9033491,-1.302803,-1.5462512,0.15348679,-1.6421065