4.5269585,-2.8239858,-0.010580974,-4.781928,-4.58724,1.8776459,0.5657542,0.5206628,-2.4943297,-15.462032,-0.30076674,-2.9504132,-3.1333168,-10.159212,-8.954262,-4.085655,-5.414108,-11.545505,-13.167215,7.637182
3.6539805,2.5554643,-5.42828,-12.911654,-11.516333,-3.3179324,-4.4126906,7.857916,6.968461,-7.865384,0.86165494,-13.2249775,-7.3462305,5.2937346,3.225742,-9.5817175,-8.455406,-10.983878,-6.0259857,-10.228311
-3.3190722,-2.2472725,-0.7725854,-0.23210011,0.6789573,1.5665134,0.43161514,-1.925256,-1.8085171,-3.396654,-0.8397013,-10.835641,-3.5062451,-2.9669993,-9.898377,-3.894254,-9.197343,-4.923046,-10.480972,-11.654872
-6.3947306,-0.46125057,-3.2638109,-7.554784,-0.73522663,-5.8390555,4.2912045,-8.08632,-2.9140651,-8.543352,-2.981676,8.384667,-6.525266,1.7024136,-8.747963,-0.8257188,11.6947365,-1.7094226,-5.7517614,0.33084327
-4.187585,0.19577022,-3.077766,7.033095,-5.1196327,-1.2845575,6.3424554,-0.96188307,3.9348855,-3.6314795,-4.9999466,5.0937757,-2.9014037,7.971748,-9.11875,-4.4488816,10.185046,-1.122516,-1.9529811,-6.1500573
0.786512,-2.216679,4.0472307,1.619228,-0.71641874,-2.19745,0.17802684,-2.4832816,-0.85127723,-2.145629,-4.4790416,-10.902664,-5.453831,-4.755862,-1.4572656,-1.0324129,-3.4793293,-1.5665158,-8.159941,-9.758536
-4.4032474,-0.54388136,-1.0553985,-1.5332874,-0.28752542,11.164376,-1.652364,0.6354947,-8.021502,-7.8136516,-4.012024,-1.8063867,-1.0144744,-3.756246,-3.207446,-8.7932625,-4.4334006,-6.478791,-7.991912,-11.684009
-1.4148644,0.7778373,-0.7597221,-0.7709628,0.5531932,-0.63240695,-0.82318884,0.23975521,11.733668,7.376539,-4.6105986,-8.001269,-3.1897264,-5.081189,-9.847466,-1.5782139,-3.225926,4.198655,-1.567758,-10.09294
-0.30188853,1.5726918,1.1265767,1.4692897,-2.627839,-3.4461942,3.642843,-1.5307397,-2.526283,5.2416945,3.4615378,0.6011986,-2.3674216,-2.7027967,8.846053,2.7900267,3.9273765,-2.1417253,-4.1522746,3.672841
-0.22624385,-4.575102,-12.173756,-15.74338,-12.478167,-20.766685,-10.490421,-10.390084,-7.656636,-11.7413225,-12.404469,2.291239,-5.9501557,1.8939648,-10.778813,5.3953586,-1.8504179,5.0506163,-6.6299667,-0.32552364
-0.61026335,-0.80766433,4.477666,1.9827261,-0.72540635,-11.135126,-1.4089758,-4.3510323,1.7020837,-3.4702547,-4.910007,2.5937557,-4.564842,-6.4389663,-1.1397696,4.508332,4.027215,5.6116114,-7.1063833,2.7362683
-1.2512488,-8.243929,0.74530274,-10.179877,-9.515293,-9.543783,-3.0434463,5.4384575,-0.37171718,3.3863337,4.737749,-6.2071366,1.1069593,2.4510853,-8.710232,-8.246536,6.461511,1.1818333,8.382309,0.4793172
-1.993046,0.0031644201,-2.7166643,-0.14035551,2.2235198,1.8959928,-1.8586874,-1.0528253,-1.8423488,-2.7500284,-5.46208,-3.2586586,-3.183028,-6.487799,-2.8542316,-11.199473,-9.681211,1.5203241,-3.2816467,-14.27525
-2.0421045,0.6008932,-2.9013186,-7.630637,-2.1411226,0.07592661,4.20377,-7.8098702,-6.4479585,6.619446,11.168027,-11.032064,8.306476,-2.1986773,2.4313033,5.2537813,-4.480096,-0.95323205,-6.6411424,0.23317824
-0.5684257,0.6802699,-1.6834886,1.2709743,0.30164644,0.12227981,-0.78059524,-2.426988,-8.808188,0.50300795,-9.529412,-10.803477,-9.8424225,-2.268822,-3.4333084,-6.6788616,-10.177684,-2.495648,0.6170156,-3.2116685
-0.6495281,0.43466392,1.8386174,2.8318331,-3.1291082,-0.7728818,4.941083,-2.0734432,-3.6525156,1.8201175,-4.7555094,-2.1448996,0.98400795,-0.6084287,-3.2694178,0.14219323,-10.750975,8.304385,-5.4046803,2.5500286
-4.6770196,-0.16936071,-4.0600476,3.3243785,9.642239,-1.3889321,-2.937228,-5.5732307,-9.043201,5.3271565,-7.7389326,-10.107862,-0.34574017,9.000076,-3.8767827,4.4568734,-12.379561,-7.63995,-5.6859374,0.03346409
-1.7067337,-0.43022594,0.2252622,2.0414982,1.6847795,0.3063221,-0.45140404,-1.3807387,-2.0720837,-6.0692935,-5.1754346,-11.215296,-9.337417,-4.261818,0.74280006,-2.5644014,-12.405888,-2.78584,-14.471179,-9.966549
-0.88443786,0.3146544,3.7161133,0.7459341,11.685646,-7.587482,-1.750575,-1.0230354,-0.8673797,-6.77192,-5.782825,-10.491618,-5.725059,4.367442,-4.0158863,-5.8533244,-3.643069,-0.9369909,4.2434273,-5.840655
-0.7561897,-0.4258897,1.8314775,1.6089987,-0.84704286,1.82052,-3.2257676,-0.18739522,-6.685056,9.644798,-2.0279188,-3.452851,-5.9697185,-0.6920395,-0.2530118,-0.47488326,-3.1813514,-2.985347,0.031252876,-8.459796
0.9170586,-2.2957652,-0.49577743,5.6147704,0.7497172,-2.514705,-2.9035528,-2.7451427,-4.690522,-7.7425666,-14.284327,-7.9981704,-4.479434,-6.768461,-14.142291,-6.453837,-12.399414,-7.8024387,-5.4404273,-9.639824
2.3201494,-2.1088908,-2.3170464,0.33116722,-1.848909,2.1164312,-0.77897125,-4.5645695,-6.09411,-4.1025667,-3.051751,-3.8598905,-3.0849776,-0.25487322,-5.419276,-8.9092,-4.1906333,-3.9766119,1.4638227,-4.5843487
-1.2508888,0.953606,0.69803387,-1.4737706,0.7566119,0.14001493,4.388102,-0.7669288,-5.5002456,0.63063955,13.683691,-5.853421,-3.3327584,4.8105435,-0.297851,-1.404907,-3.7902248,-2.3506415,11.085562,-1.3607601
-3.4829462,-3.632081,6.1517587,-1.4873843,3.7951334,-6.6591067,2.3353312,4.8385415,-0.81236464,-5.2207627,8.195944,8.057193,-9.011601,-6.133945,-4.260152,-8.469485,-13.392904,-9.304594,-1.8295541,0.8771859
-1.9055063,2.2343874,1.338661,-1.2360982,0.06634631,0.3184883,-1.7956831,-3.1232874,-4.0033293,-2.2744153,-1.6981522,-4.524279,0.51994514,-1.3009033,-6.1916633,-3.9784691,-11.872194,-6.180333,-9.994692,-7.785507
-1.3307723,-2.780515,3.2794993,-3.8724852,4.4763117,-0.97589433,0.019513525,-3.914064,-0.57921714,-2.7532418,-4.8623085,-9.1159935,5.687606,-3.6769588,-4.919716,-6.896702,4.996165,-3.3875744,0.50839543,-3.5914626
-1.4568375,-1.2142581,2.5436852,-3.6879418,-3.9562705,-1.9234285,-0.17550866,-5.1548877,-4.8196745,-2.9770644,-6.001443,-8.591576,1.4348223,2.0080934,7.796076,-4.2272778,-6.374908,0.85266334,5.2059727,-10.770509
0.37048325,-0.03450849,-1.0883335,2.9067585,1.5830828,-0.96403474,0.03520859,-0.057901975,-2.4510558,0.97951967,-2.0258625,1.6488401,-8.468626,-0.96673906,2.8626208,-0.32044157,-1.9259574,-0.9790056,-1.9062032,3.7328093
-0.61559325,-0.36608255,-0.8127681,-2.690726,-6.7574058,-3.2715049,4.2611775,4.2957325,-2.4408405,-3.2645361,-11.091285,-6.492756,3.1984274,1.8981975,7.6621933,-8.292972,-8.510528,-2.1020281,-7.1308675,-3.2089076
-0.88678885,2.4267564,-3.5699728,2.99316,-6.030703,-8.690958,1.409461,5.291189,-2.773017,-1.8068964,-14.314824,-0.407683,8.293689,-5.460646,-9.417368,-12.31834,-18.350548,-5.5514445,-17.310217,-16.00595
-2.1504278,1.5386086,-1.9423687,1.5943601,-0.8849269,-0.93642735,-5.9265547,3.403258,-4.0025163,-4.5793505,-8.771127,-0.6081578,-1.8824571,-7.712566,-11.166429,-4.5293784,-8.059231,4.808453,-0.43418086,-18.811333
-0.80373126,0.7004145,1.5409137,-0.91454476,2.4165952,-6.8168907,-0.8255178,0.24379551,-3.1444309,0.8083169,-4.123929,-3.4646156,-1.5028089,-4.953733,0.6170991,-2.268709,-8.342544,-3.8420942,-6.5104527,-6.2982936
-3.1267114,4.129198,2.6193933,-2.0729845,-1.4229689,1.0406098,-5.7557936,-6.030315,-10.850563,-11.331673,-17.27513,-4.6258283,-4.167053,-9.139419,-7.663962,-10.602891,0.16924383,-7.856578,-17.874252,-19.245138
-2.0407457,0.70579994,-0.8183596,0.57605326,-0.73901033,-1.2276661,0.5254056,-3.2059677,-3.444461,-1.3427899,-9.746929,-10.801483,5.4566045,-1.1702386,-8.521695,-0.3237642,-9.303694,-6.238222,1.9973898,-7.199645
-0.21492651,0.52407783,0.95391005,1.3648393,-6.1307197,-10.224409,-4.180227,-1.3285949,-5.926331,3.4772484,-2.0591896,1.48578,0.6786327,0.20956875,-3.1128795,3.942124,-0.2896362,-2.6055353,-5.438132,-0.9955261
-2.1214235,0.27215594,2.4648108,0.32767284,-5.6092706,9.555706,-9.849038,-7.167429,-5.1668863,1.5823416,-4.806624,2.649309,-0.22261524,-1.3173196,-4.0454187,-7.149553,-2.4813933,-6.0977635,-22.68589,-8.387223
-2.09795,2.7161977,0.44199908,-0.23394218,-4.6502237,-4.3683076,-5.255383,-3.1134648,-8.0439005,7.2337904,-8.824393,-3.368979,-6.925871,-2.0893366,-5.8612266,-1.1953114,-0.7484446,-4.2621737,4.4881043,10.842824
0.38863775,2.0471125,1.8583589,0.25694767,-2.9549165,-3.5691166,4.2041974,-1.9600073,-2.4542742,3.4756706,-1.2930654,-0.7484642,-1.6430955,-5.4467845,-5.5989656,2.0701485,-0.53140175,-5.725942,-4.2039943,-3.5759087
-0.3451185,1.1564171,0.46341646,2.948879,6.26888,-1.572686,-2.8281004,0.22365744,-2.5452633,2.763219,-0.15972865,-6.239712,0.97421205,-2.2769043,-7.2143164,-5.682862,-10.743678,-3.4795825,-6.992459,-7.7344675
3.5513277,-0.84945697,6.9486113,-1.0007607,-3.744423,6.604321,-5.5816636,-4.574303,-3.4775283,-9.687744,-5.7774434,-8.378035,-3.6314335,-14.383739,-2.7716298,3.3880346,-13.983408,-14.826921,-7.001088,2.981821
0.5148182,-3.7480717,-1.5161693,-12.176078,-8.171063,-8.867178,3.2269459,5.675697,-4.142482,5.878694,-4.330105,-14.295034,-5.0311675,-10.494396,5.3865733,-2.5996501,-2.3974276,-4.4431834,-1.7513176,-10.3292
-4.824008,-0.44535318,-0.86471456,1.2453912,-1.9189824,-8.662664,7.6324325,0.3588907,0.5734228,-9.496583,-4.646405,-10.489789,0.27205542,-12.3471985,-3.866729,-9.813119,-18.179659,4.863465,-5.64457,-9.196541
-3.6394742,-0.29930654,2.7961679,-1.2044926,-3.504408,-3.8319342,-7.07843,-1.6619649,-6.2424097,-3.0228233,-7.7743745,-8.244149,1.0018231,-5.314305,7.613368,11.307257,8.984004,-6.483795,2.0169883,-5.4548054
-1.3673263,-1.6768044,1.1384737,-0.860701,2.6133633,-1.5340549,-1.1771486,1.3789045,6.435976,6.013492,-5.435509,-6.854297,1.8306414,-4.5242934,-6.318095,-1.9788231,-7.798605,9.143901,-1.7404839,-9.1750965
-0.5632516,1.1553662,-2.918022,6.2030997,-4.128388,-6.9820657,-1.7497394,-1.4657578,-3.3622684,5.371653,-5.05486,-1.4025414,4.7699556,-2.689041,-5.153926,9.369499,-3.0361152,1.961132,-3.2802303,-7.202443
3.7048867,-3.012521,-4.0826635,-4.381624,4.129374,-4.0424604,0.028502723,-0.48454362,-9.04769,2.3389137,-10.624959,-12.591759,-4.459771,-6.3212113,-4.331808,-8.636492,-7.537162,7.204785,2.453971,-4.375483
1.7110841,0.14441095,-5.384045,-6.1199446,4.688516,-2.7916892,3.3066509,0.28157887,-5.089142,-5.072789,-5.7639074,3.6686745,6.145749,3.864977,-5.1340184,-4.3238516,-6.883413,-4.9289274,-4.487835,9.12468
-3.4237645,0.82121503,-0.3579267,-2.0859313,-3.5807703,-5.3368306,1.9215871,-8.605209,11.869067,-1.4430425,-12.444819,11.262425,-3.5605001,1.5834346,5.7774487,5.552054,-3.0082214,-2.8287594,11.888756,-7.2218137
2.9649327,-0.34206796,1.1688147,-4.6462092,-2.4380755,0.28530997,2.785697,-1.7058443,-0.4830618,-3.8446238,-1.4455507,-4.956977,-2.5850375,5.107649,-6.961378,5.4862957,-3.6249337,-0.114341244,-4.5824895,-1.648831
-0.2870882,2.1251845,-0.44251853,1.428292,-1.5244424,-8.249553,-2.140839,0.018731235,-5.86579,11.530768,5.6888776,1.112141,-2.5323431,0.59241796,-4.978695,-1.6316016,-0.65581155,-2.592175,-9.81671,-4.650513